tree
version=v2
num_class=1
num_tree_per_iteration=1
label_index=0
max_feature_idx=8
objective=binary sigmoid:1
feature_names=ip app device os channel day hour minute second
feature_infos=13543:13550:19360:978:989:9882:18353:21047:19346:37337:17544:8390:20416:34850:25300:15956:4873:21040:38991:16946:17011:3098:8021:17019:21054:17120:16952:21044:22780:19947:15569:27348:25582:719:714:14147:14654:15625:710:2480:14661:19941:14668:14673:27184:33086:19841:15597:19935:34362:27202:6610:27180:8231:4543:10974:23014:6604:2476:8876:8898:717:31848:33094:8229:27200:10912:16673:8885:8204:32495:31852:18487:19953:8033:6873:8101:16931:9650:9887:8181:8189:26985:21938:19339:16606:9648:8045:9654:23028:16938:24689:1064:6951:8862:31843:6617:12103:4645:17883:21930:18858:2704:6922:18381:21912:918:16609:1308:28034:19364:6946:16976:24624:8195:349:21133:19361:6769:37716:12427:16970:21122:8226:21079:25095:4550:9644:38093:35728:22355:4621:9943:16669:31855:15732:1570:25374:22691:32680:16124:18329:36559:38126:20167:4641:6940:16773:17555:352:21084:7297:5528:12975:21770:9997:9180:4823:26702:19367:5546:9368:12421:11421:1972:10028:19451:5110:15775:32230:2218:35551:4187:6931:21117:18289:6944:10024:28104:9988:15669:18336:16808:18877:1021:19507:9295:20029:21152:17887:19505:5541:11691:16790:18302:4531:31692:4225:20465:4509:12218:9995:37729:4632:20162:21147:20169:6640:10628:9175:4637:372:18089:6780:16011:35529:7289:21162:9362:9289:34756:14076:5341:21158:30512:7006:10633:13773:4468:18568:19317:9661:21763:19522:7012:19348:3362:12429:20451:365:16763:18251:9284:21710:4526:12391:12447:18661:15043:15772:18262:26460:4650:17876:20181:18224:21679:16791:11578:1195:38764:16788:8837:22301:19310:1549:10760:1187:17879:12388:8053:11546:18743:21675:35523:10805:12331:6649:7995:7569:19344:5312:21747:21731:8989:29410:29541:4628:18253:19457:22710:19406:14110:16781:9166:8716:35858:8223:12378:1171:12435:31799:17111:18978:14117:389:12443:6803:1202:9623:35544:18911:9170:11965:26645:7432:4491:3424:38853:33491:6870:18702:20145:33560:20475:7334:35870:7531:13607:19390:18970:20037:3770:35865:11428:19513:192:9197:19500:15084:10770:22677:18480:21752:19415:22690:1517:12850:6854:10979:21422:16769:15901:451:8139:4616:7622:19114:10338:3741:4625:22037:2325:18897:2666:20170:18243:35537:19355:18229:13569:1179:14992:9301:8687:18485:5921:18686:1164:8221:7339:17422:19353:10279:18838:35474:35503:20174:15660:15063:13619:31949:8820:20445:8812:2321:1862:4513:14158:17389:33292:11268:17092:5307:21757:498:173:3126:7560:9216:382:7540:10287:14999:9985:17114:6996:19421:3730:8219:7520:22022:1544:1230:9659:7484:17383:9066:12740:5550:18883:6785:11309:18693:7669:12417:18256:15697:7626:15305:37529:2328:2660:35555:8185:10290:35862:11099:161:4385:13342:14102:11302:1978:18752:7700:26958:19377:14224:26125:7617:11183:4618:2738:13602:11703:18632:8326:20155:35797:8152:22250:10342:9317:5814:5349:25378:15579:13613:4497:6919:14201:22084:8198:442:1163:508:22319:14611:10982:16767:22737:6314:4212:3135:16450:12286:17980:12446:2398:7082:13770:36027:27906:5446:21685:36031:21716:17925:1123:21060:9655:19381:7717:23535:21736:20414:19615:19286:1402:31825:2392:5500:25225:12442:12415:19447:9632:2223:36677:21513:16805:22293:17417:19298:10396:23095:22707:7705:7778:12146:20462:17839:10394:2672:5319:7252:9451:21475:21761:4464:1232:21755:2388:20630:22668:7253:16645:12755:16463:9637:21298:4313:13852:3701:7612:11286:2555:10755:11531:804:26960:17410:18658:18649:11176:10821:18092:11541:12281:30762:1182:1174:35752:5328:14208:9999:22699:28672:3716:15663:1546:4968:5396:11424:8379:8589:12440:15297:11090:1338:36584:12764:2655:18903:3243:8215:16498:33598:4501:2696:16893:27539:19476:12400:35519:12984:12313:5321:7527:19137:26591:16521:9649:19610:3994:1959:3645:36830:12448:11019:10986:14916:1411:6796:4535:3733:6844:3118:9201:15092:8386:572:14399:5346:33271:20928:1598:8828:17872:8351:5984:18098:17927:17992:6853:6645:15695:2976:18628:21852:14086:13484:4888:19785:8049:13191:14989:26113:13144:16661:9759:29550:7359:27256:1528:12407:15637:30750:23004:7583:18362:3140:5277:19384:1159:305:2988:10326:17020:7248:7428:19281:11873:9205:15017:10008:1226:12304:12410:4540:17271:11093:18867:5658:14320:17128:8922:16660:19388:22684:15685:15076:15861:8973:22423:23018:2419:10191:9770:1537:3708:6668:4357:20764:12372:794:12310:22088:5963:20065:9573:29857:18637:9335:4354:19342:8076:8108:21793:10923:19334:6888:9185:11080:10125:13111:10971:33868:22726:13608:27968:19301:6840:5760:16699:21928:10737:18029:16861:8317:14164:18921:29863:12533:3902:16940:1518:7751:15645:18475:19270:5889:14822:19417:8271:22766:9092:12226:188:7262:6865:2703:7528:7136:2631:2181:11825:9286:6170:1363:22751:1609:16675:3244:12108:15072:20059:22698:7184:37575:3155:14701:18094:7381:17610:11696:1594:21218:18103:38851:5192:18674:18698:32864:10308:5022:38467:770:18332:22334:2151:12791:23031:4382:14983:15359:13927:5338:9507:10298:593:12644:22722:229:5942:1190:7643:2971:14817:21112:7693:10970:218:15628:5715:26970:8014:1050:12339:10753:33098:6842:7244:5950:8669:17263:5354:12672:15162:9629:22968:3440:10327:11846:12311:22103:2413:2377:21496:14821:22028:8335:18361:14931:21348:21135:35871:36978:19369:7741:9739:1713:8050:20556:761:19471:13233:21223:29554:9190:18085:11335:8843:3112:2980:104:3107:18481:7379:7375:29860:3217:14217:7218:30761:5958:5898:933:971:18216:5778:6229:13202:10109:1184:12134:5333:1557:16325:1643:39416:376:12687:12292:21245:1834:4516:1948:21093:2068:9117:21015:16549:3765:15342:10794:4732:9725:16626:20779:16634:8681:25189:12404:2599:20498:8067:14769:3722:2840:14645:20381:11220:7629:13817:21941:1607:5869:7213:20160:35581:7230:15350:17849:24375:18066:22042:16243:12205:12235:10143:20551:21262:15083:5724:34617:22033:7071:15395:5553:12744:13171:6810:5402:21829:16169:2315:12714:11678:8696:22364:18327:193:7306:6793:8692:10259:15415:8172:2500:14988:1982:8929:4305:1073:214:2322:16995:3533:5211:22750:8439:15290:8976:36839:18354:12136:19711:2382:5511:7571:11684:1731:478:8160:14172:14189:14194:11821:16508:357:7211:7219:16954:11467:14433:13011:8998:15094:13872:16368:12519:9028:20183:5286:1724:24310:21919:4817:13828:9584:16188:12727:38587:15060:7911:12707:4414:3189:5684:1070:1558:6394:10175:6860:3172:12140:17987:15862:22746:14452:19309:7109:11043:16309:13186:10765:4971:5414:1449:4001:11072:11980:2636:24672:24676:1347:9040:14795:35559:323:22665:16975:16883:5329:16962:7547:18994:10920:19280:3468:2407:13185:20768:13843:13510:16757:10812:11537:18625:11340:16667:15311:13153:7690:8147:14142:7398:4792:8594:13897:30770:3175:3368:12685:4143:12046:18401:13054:1552:1888:7389:1886:18949:16933:32686:20421:1160:8966:1871:22979:10849:4518:18141:920:33756:12611:31248:11187:26551:7709:33873:5062:21019:13466:9765:18405:13592:14720:25804:27020:637:12122:7541:2714:6108:15884:20570:17155:13810:7235:30141:9324:3823:9329:5931:22838:875:7298:19542:22662:17159:13180:3167:3147:11351:19762:5685:20127:11566:1043:4759:15358:19466:29119:3863:1006:21732:7459:15423:10872:9072:19380:15675:8525:16543:9083:4791:6094:5368:18486:212:213:232:12981:18180:13746:33588:33851:21619:9271:15409:402:19253:13588:13162:28379:16832:19292:1831:24094:19146:2837:16425:13818:8027:8324:19811:19314:13555:16168:17405:9114:15889:15279:14868:15102:5059:5708:34786:26477:15121:8391:8421:13025:2877:13445:15161:8673:2331:7174:10395:16231:1352:22184:18992:6918:6361:21789:7637:20276:7715:17469:16220:6336:10343:9012:22736:4762:597:15077:3535:21104:36969:5505:12187:13170:4029:14714:22520:32503:2179:2911:4859:32817:7913:19217:27064:1532:1519:8383:11000:7103:4366:2237:14119:7084:9746:1579:13332:19313:7510:13687:8956:11065:14235:12154:2484:13679:17548:3477:2826:26074:8578:7063:8040:8664:5410:11267:12919:17454:29381:7308:13667:7519:15623:19072:12016:11833:22670:16657:13161:18314:3133:17526:11816:3984:8142:8097:21577:813:7199:19616:13478:20426:7173:796:22777:2502:2233:22819:7584:22784:2283:7610:10001:186:20820:19378:28684:13951:1032:9010:7701:28414:2907:22640:17875:3541:21916:27519:6641:27454:14637:7901:452:2854:13766:2851:9628:13741:1066:6388:6380:2812:33845:21905:610:9731:6258:6208:2272:15902:13502:8089:6164:2236:19263:34535:13168:22760:13143:21309:12294:2611:16148:13097:21272:1240:14911:21648:15283:1168:10155:2545:8350:19164:8416:19303:15035:1935:17947:10668:8873:22974:8634:1454:37305:23059:23063:14343:11390:5900:3164:17001:14269:17013:17560:14227:15984:35:14196:22845:7065:5787:24203:11958:7134:3031:14093:11567:16856:8103:18121:9869:11565:4763:16376:29636:4771:16863:14327:2889:927:21472:16340:6433:22427:31290:9954:20219:7454:34332:22444:16958:16917:510:2605:829:25437:20484:14768:1525:19783:12242:13822:181:37810:10767:24084:3445:22064:13856:20000:12203:11041:18368:22287:14152:5990:224:19336:12649:11879:21784:25863:21774:10699:14620:1728:5407:849:8151:3471:34809:8328:22055:5002:11457:30192:13811:25730:1614:16160:11529:1697:9325:18859:17313:14965:2722:16948:15998:3712:5913:2850:30975:9283:1845:3495:22860:9926:19305:17570:4508:18005:6763:3038:38663:21701:8904:11333:587:2203:12806:10747:5695:22907:25194:20701:10785:10822:3159:375:1947:22388:2859:15629:15631:14689:18449:19777:4993:7239:13491:13494:17829:11826:21299:9976:11101:13239:12682:3825:20472:21292:34596:12662:15970:13514:36422:19552:13105:20446:3868:13461:12655:21273:13192:8039:8910:6214:6233:2563:1246:15321:19568:11791:13197:14957:20624:19277:18389:16349:10991:11762:18062:25605:18951:15847:6346:15334:13203:24099:6363:18395:14692:6371:21741:21909:2824:6423:36808:21776:13732:21506:16284:21149:10778:4797:12082:8513:1376:19751:2857:10319:12090:7897:8988:11686:11685:13213:38548:15091:12856:3544:22882:9254:14566:22915:2900:6748:10237:15104:32226:2206:1037:12264:18351:10801:13922:1704:22994:23216:22712:28785:37645:2081:9026:189:1438:155:8708:3072:15667:35806:16965:29551:35767:5881:14073:3119:22138:29686:9991:900:14094:14273:8164:11418:19109:7061:11077:24239:7277:9345:9342:19515:9319:30197:8188:14790:6176:12296:36552:4983:2740:15898:14877:11160:1028:17126:7664:4243:22743:493:13772:4591:11718:2969:18935:11676:5772:18321:13887:28893:473:10309:15029:12139:20870:13727:14013:6492:23956:172:11583:160:21326:1322:3409:17200:29464:4544:15237:7720:2477:8429:1975:13907:21138:1940:11120:2481:8827:15658:14427:9038:15652:14997:1971:4537:19510:16480:29620:20144:14994:24836:15640:22820:5741:15286:13014:18746:3660:8795:9371:1880:5054:3531:19807:20925:13623:22859:4780:8404:1857:13440:20740:7315:9518:20316:20185:6319:33963:18350:1839:2401:12864:2526:8644:6568:4248:17465:16298:7265:11536:18855:21901:17253:15876:16318:20478:11259:18680:12798:15735:15065:11463:7506:19824:22854:24325:3062:18523:21780:1955:6838:3822:12969:7915:2559:35152:11843:8307:24136:20563:14156:2678:26494:16891:22280:262:20302:22176:14134:10897:17951:13005:16651:1344:10911:15079:15071:8535:16185:15025:18923:18869:5525:13067:10984:16703:14948:8344:20579:8310:18365:1239:13090:1222:16321:8201:8193:36503:8183:8182:14843:26462:11105:16109:20452:26714:16812:8059:11164:2822:21913:14664:20406:14646:27485:27660:16060:13224:18021:7713:19372:5768:28888:21951:3981:9989:16941:20190:19391:11339:7100:7486:7473:7074:49:21981:3357:9356:30998:3081:14083:11571:17100:35769:31216:152:31415:19903:3438:198:31789:204:243:5876:19831:6826:16983:6767:22644:360:3536:13848:13806:3586:6577:6548:14315:504:33014:570:3675:3699:16005:18317:13564:6254:34291:22192:14293:9930:11840:11909:6064:15962:11406:39524:12689:7328:17571:16361:3177:17582:1742:10483:10371:16311:21476:12315:21270:18171:38977:4953:18847:18955:14247:18080:21215:5924:1566:18002:1868:12353:12812:7259:10576:5933:12374:4864:1939:1967:9278:1490:1487:9908:22050:5325:10658:21108:15561:21094:17814:19258:9111:2086:18647:12133:8954:23332:20948:8949:30446:4221:18646:14175:2196:9896:20916:12504:30645:1382:8845:11502:1370:24202:8746:24305:18879:19990:5068:34914:12986:4782:10890:15271:23162:17596:3849:20438:16291:11172:22170:7833:18972:23335:13486:1782:13093:4523:4905:10981:20501:616:8814:12127:18049:19572:1632:32499:21869:17590:2751:13801:22218:1851:18369:18977:19150:8211:16754:21494:4028:5087:13176:7940:12668:15899:15218:18667:22204:13834:9675:5034:20889:4704:8129:17850:33821:2761:15381:20447:729:9876:13577:1204:11802:20431:7909:16099:2558:18679:4998:8992:17577:22500:1080:6281:8171:10075:8166:574:1712:21321:32649:6367:9568:18322:1192:26093:21330:15801:32406:2897:14560:3517:10025:28050:5764:346:334:1391:11625:7683:6849:248:240:9459:3451:3442:15190:9068:184:6907:13228:1011:31447:14061:22806:31078:29206:23035:18622:24436:22836:9357:2085:810:18918:9330:19956:14126:29455:10876:9968:13245:3069:23016:35832:21994:10282:3049:29609:9167:1380:2045:22018:16584:19469:24891:15323:1474:20732:16203:2026:22921:19478:29900:20726:15583:4168:7302:12848:7299:9293:22027:14243:16190:21127:11440:7263:10781:12380:12722:7238:10605:19058:12562:22052:36840:20686:8493:3273:5212:4794:1545:8455:10965:17622:34961:2473:10330:22386:11692:6370:16836:14815:11111:13432:22133:26568:11746:4070:3534:789:6414:27292:6418:9663:13217:12021:19338:2734:19544:12515:10828:366:10334:20455:12583:11814:13520:18020:32263:347:19549:9783:20321:8413:17713:24269:13937:24337:16807:22700:22717:10174:19374:3463:15702:19664:1861:20289:38783:28770:4507:2964:7648:10166:20260:1843:31702:13076:19774:15679:18912:14453:4378:13524:4933:2299:3413:7605:29068:21750:22792:32907:7576:18011:11563:14412:90:34283:14407:19928:3979:23890:21959:19311:1578:17095:15595:9978:8341:14101:7050:21234:8333:14657:23633:3333:38939:7500:22578:9308:19969:12646:11162:18300:12329:21876:16534:37316:7465:9106:1807:10361:18345:21464:39410:18827:15315:19269:948:22002:7431:15485:15219:22989:8305:932:5150:23909:685:17485:4472:20561:3127:12157:34233:10791:9772:15115:16653:12652:13212:4292:2845:17472:7362:7361:18971:3157:16003:15249:29828:3621:13316:1233:22881:8773:12535:8950:9268:12100:29906:8583:4454:5145:1498:5264:8203:17998:19741:12675:18377:10134:21120:7284:9624:18987:5723:30058:11178:12288:12830:5622:17749:6571:4208:13339:17575:10940:14574:11082:11083:2652:20066:39429:16181:1527:5954:12691:21334:16132:4560:1056:17170:30441:35309:24155:7181:25371:21408:7164:16687:11880:15014:36312:18358:20355:5069:12703:17061:5040:18297:13626:22120:4876:1904:12656:37527:6911:11590:10003:19320:12676:4606:1611:39533:17106:145:20951:31258:20212:14424:2138:5086:14074:19009:16137:3982:11087:21026:19332:13229:8157:21337:12695:29229:5028:22831:39513:16041:5140:1685:821:1437:15416:11868:7035:23025:31004:3860:13236:14900:34749:10103:34649:29328:15619:16120:19511:34638:14801:14112:6082:9326:11852:17706:8111:7092:23183:11851:19516:22164:11829:20460:21599:10085:8085:17960:15469:8074:4802:18919:2326:12972:11153:20449:4805:34243:18109:5709:5818:13535:21594:20440:14747:5103:26923:16969:29555:13195:12999:23011:6261:2238:5866:4034:19440:6279:2342:18267:34077:16978:6294:1091:18348:22987:19594:605:21582:20876:9713:22977:22348:1461:6368:14686:18280:5738:12153:6428:27314:33293:11208:13710:11725:27370:6557:14306:15108:37598:12158:22966:22962:32740:7369:14644:11699:14643:3581:14639:19772:22562:1650:14623:19063:16504:13829:13835:22899:17494:35507:27623:4622:17460:7820:18404:1903:17162:4139:4303:21173:13881:4690:4883:36774:32264:17766:20107:9292:888:29994:23083:16483:4903:12604:23884:25124:21500:17452:880:11432:5241:7285:10864:28354:10782:12839:18953:13580:22658:15748:2515:8550:22858:36720:18142:7260:4776:11448:10997:321:18848:12555:20707:20070:4840:17145:18453:5509:4566:8848:17516:3247:25635:8888:20616:21490:3482:31964:20067:15717:16300:18688:18882:22720:5966:264:39449:16678:2548:25801:1585:12578:17506:17674:7190:20290:36619:7666:12059:12723:4194:12580:12934:7166:28777:16409:10959:36834:12650:234:1244:10962:15977:4750:14907:16154:4301:3446:8434:35005:16153:11038:14898:12776:1597:8912:2475:21358:21277:35966:3319:5118:1291:20154:20515:11094:2737:9312:16872:11280:20195:21911:3068:1606:16959:586:3074:3103:11400:11410:3195:17014:20095:20025:601:3297:19981:3322:17086:3365:3421:11634:18035:19755:19718:11778:11784:19560:11811:66:3834:11855:1646:3857:3963:10401:3989:9364:12000:4052:4065:19302:12092:17455:12118:22311:4269:9748:19215:22815:17520:12328:1671:18958:17603:18957:18956:12343:672:17618:16344:17630:678:17644:10121:4604:18916:15895:4683:18906:18899:18873:18872:12511:166:22775:10131:4777:15906:4787:4831:4837:16151:12591:18134:39577:12667:5023:5045:10456:39150:9440:5186:12908:17817:5380:37492:37292:37097:5534:22753:5567:36694:36477:9457:36291:5696:5698:36055:5739:13207:13226:258:35895:5899:35421:13341:34996:6088:13476:6137:13498:6180:16182:6191:13515:16187:21274:22145:34311:34122:1317:6241:6271:13591:6387:6399:13677:6440:15738:6445:6452:33317:33149:13839:13890:32266:32232:6771:1350:31574:824:14015:339:6929:31207:6976:1361:6984:1365:15753:17983:14068:7025:14108:30867:30864:30399:1374:7206:30384:30056:30027:7305:29867:18424:29749:21654:14354:29274:9558:7567:7642:14501:28574:7737:7738:395:28059:400:18408:14579:7817:7854:18398:7933:26799:9934:14765:14793:9580:26595:8180:8213:26212:21605:1440:26186:10564:10565:26119:8331:8410:9597:10283:21169:10575:1458:1459:14998:8488:8520:15081:8569:15106:15107:1473:8674:15166:15171:8854:8860:22489:23582:23483:15338:8981:484:9088:15493:22990:21973:9161:9194:22940:22923:9259:9270:983:9276:21119:21115:21111:16501:2117:21011:21007:21522:20954:2180:523:2190:10788:2211:1541:10329:21501:10335:1559:1560:16638:10887:2363:10913:10915:22410:10931:1036:20695:2467:2491:16707:2522:2553:2594:11067:2107:4964:3766:17591:11864:29253:37284:9018:22:34816:14406:9323:12640:7249:31721:11456:687:29156:17780:22844:7240:10351:7581:34945:12350:14461:24576:38936:37243:21933:5171:4886:38933:1568:11075:8496:21931:11070:10744:2953:5785:25365:16067:8659:732:19776:18279:8657:37147:19766:110:13160:16264:21566:19613:22197:20295:18944:30623:28677:7140:8970:22183:6519:10750:15378:15369:30678:4789:16260:35978:11519:20306:13660:12569:15138:18933:31817:20543:8225:3327:22147:30846:12560:3329:3447:3734:11258:15352:13351:5481:11883:11528:1314:15346:33486:30888:19493:15343:3341:6274:16248:22740:20555:5961:9468:17254:10776:17653:30973:10905:3883:28135:22708:26055:5496:7771:11562:19653:17631:830:1870:22693:10796:33162:8400:1428:21201:14596:18190:38417:11564:3382:14077:16427:6843:5925:853:3393:24993:16240:8299:4152:16424:14066:16235:38288:6814:4145:2498:16599:27510:3706:33867:36835:23868:12516:15997:5283:20583:27507:21228:21263:25791:4811:23885:12527:13311:17881:10487:25025:17403:33819:19461:9560:2399:25444:6570:14665:26458:36302:925:5308:5887:20433:10922:4629:32496:11741:16722:15246:37785:11010:26916:32846:15056:10422:8355:8062:24149:6494:1974:21989:10626:19147:443:13845:3212:25390:32177:8376:18769:8732:6778:21842:22512:4738:7296:3776:37670:9266:3202:9262:39106:21391:6521:12401:19640:26678:29915:15567:1264:35723:21103:20791:24329:9977:11822:20640:6161:20467:13182:15539:29876:39263:22960:13490:5085:5652:21420:21720:14289:19536:19525:14302:22414:15054:18157:22976:1642:11837:3090:1641:6463:13458:33493:12705:565:9685:5383:2060:5037:18915:6457:20175:16785:32923:3066:10878:23008:12962:9129:1622:9121:13260:13645:4644:20180:21956:26473:19007:4997:2072:3064:2669:9077:29430:23052:16953:4198:11858:1587:32377:15868:32921:3844:10939:22318:29368:12051:18150:16191:11862:5697:6451:23158:654:11079:9750:29277:4868:5151:18942:3761:17620:16900:18747:35040:11451:18037:28819:14465:14220:4902:11468:30286:51:18830:22839:14447:6021:20230:34194:13815:7574:29139:6611:34857:4496:20196:29202:20191:11866:15633:100:29273:3033:18889:5188:7154:9393:6060:3041:12298:22793:38805:13553:12499:11861:18028:4701:33204:12671:30682:6077:7498:13559:17071:12679:12683:12684:7095:33200:177:30875:182:14366:4410:34624:13570:18655:22763:22761:13728:5235:7479:12172:7070:9465:30907:4772:11554:11361:34613:7447:32630:16964:19043:6462:7440:286:3094:20151:34049:31010:22683:32648:14313:9303:317:19920:3139:9522:328:18452:7383:33877:19593:22661:34489:6310:29824:12872:22645:38201:6149:3161:368:31165:3696:34449:3166:5096:18254:12495:5106:3692:18426:13505:3401:34347:31337:6182:31377:9570:11693:39122:12754:12759:31380:33790:32669:1963:18025:9587:21128:21123:17495:22553:9299:18651:6192:3210:10634:21118:22871:449:22523:455:3684:3423:9636:21109:22467:22904:503:15556:9228:22935:22454:6906:532:15531:9207:9188:21073:37532:10686:9146:583:15482:37381:15477:603:9110:21038:623:15865:23096:23108:643:15434:22312:22310:15896:23221:15406:22240:5439:37200:8999:12998:15915:22222:33667:37194:19876:17461:20956:15394:15393:22175:22171:764:6554:22162:22153:776:23442:10769:3454:16577:22124:814:15317:837:36918:3473:2248:863:9911:6811:23881:12078:907:908:9935:9937:23906:5537:2266:24031:24098:18201:8761:17957:20808:10854:18343:13079:20774:2308:17428:9982:13915:10873:36603:21947:8668:19805:24608:6768:10048:19627:10907:4760:25085:19793:19325:16664:17633:21792:5654:13151:25211:1189:16676:1210:1219:25238:15046:1248:5531:1253:20677:15027:15021:10171:12026:15013:16692:12024:21733:10199:36193:20620:1343:11009:14941:1360:8336:20586:12436:25911:11030:2578:26100:5758:14879:11049:1480:11051:14865:18372:11963:21545:11061:26234:3966:16277:26296:26385:11949:1580:19423:10374:16315:10376:32468:20488:11115:11935:19435:3940:21447:18234:14797:14787:14783:2743:16342:21350:16347:18383:21331:6682:2789:26974:27076:2797:11181:20430:3927:14688:16840:20417:27277:10481:16385:10489:19464:2839:10496:17999:1785:7937:17167:11665:2860:14641:33011:10525:14625:7856:10538:10541:20362:27621:10548:11238:20328:28009:17311:14557:4728:21170:13833:21164:28158:13713:1930:7743:20325:10610:11255:4848:2930:28515:18164:35120:28618:7679:13832:14229:20085:3225:9318:6205:30137:17028:17262:41:11462:52:15616:59:5172:9353:11474:30421:18435:81:34160:7161:30540:22823:32673:15634:19747:22805:7148:30662:19188:153:6248:30781:30816:30820:34112:191:6264:7083:208:3334:22723:7052:33194:11557:7034:15720:17501:9493:11780:9497:12412:19925:22667:14067:5273:5275:14063:18920:38155:32784:31208:19603:31218:4276:384:6328:11711:6333:37871:6565:22588:37848:37819:37781:15591:3412:11149:8745:951:13285:8763:25769:11155:25783:942:26761:18455:25260:26822:26824:8765:2394:11175:36094:936:2267:8024:25786:2373:21318:21316:35561:27067:15101:11745:1288:18633:10909:2565:19454:11198:2818:16228:7966:928:36214:1206:32288:16381:15267:8301:1758:2834:1110:15270:32167:8300:20410:21284:2838:9931:18861:21882:18860:5743:17325:17823:3524:13934:5906:16402:36026:21268:10260:4141:2849:8297:5911:10183:2869:26044:16417:7890:17698:7876:7873:24911:27504:17315:15277:5520:15993:23810:14908:9899:6671:16146:22061:18927:6432:2360:8630:11894:21767:9893:35991:18567:2888:14891:23646:17636:7796:27943:4157:14885:1873:7790:1234:5759:1095:16177:36965:2903:10562:10790:28078:2193:15128:1467:14540:24728:15328:15146:21163:11611:15335:7746:21148:37021:18930:20527:31828:3509:10763:1301:28244:35281:28252:1954:18410:36207:7730:16475:14517:8216:23440:23433:25569:15356:19383:7710:14510:13879:14505:20937:8936:1199:24659:23358:16643:21915:25336:12576:1061:4554:13876:11274:22189:4087:15388:2146:23265:37197:17176:3974:14481:15908:14979:12359:21779:20285:4104:6547:11285:19497:10988:4897:18310:20258:18707:34989:10315:26250:10741:20252:20248:19888:28942:25621:2424:7608:20957:12614:28980:19396:18022:1049:29047:14429:6032:22271:4927:22274:4929:26317:10019:26354:17609:11870:1326:4495:18132:9016:3958:18684:676:11322:19409:13745:22289:673:3022:15419:13101:11682:12326:8167:4184:6057:8484:18974:20978:23182:10889:8552:36574:23181:12661:11737:36606:12663:9049:23132:14393:10357:3434:19333:11345:12977:17585:22324:11442:24524:4443:10719:20505:21480:12284:23047:4995:9099:6882:11856:1014:17289:34629:22340:13865:3526:23012:19735:5007:23007:14369:1599:18846:16310:12692:17283:1333:31600:1334:25623:29507:12696:17181:7463:37458:15078:19315:2675:31573:32607:10149:14348:37497:7444:34584:20489:15507:8684:21470:13914:5046:15510:22986:34541:22981:7434:17991:3102:1624:18178:29634:9993:11113:29734:17827:22980:25693:5371:22419:8457:19083:13804:5070:19084:22969:16993:7374:17898:15525:29810:2711:1638:15527:5364:11758:2717:12036:34428:9987:521:11831:22952:9215:990:13756:34372:22925:7323:3429:32473:32657:17005:6398:14261:2312:17751:18584:6916:13692:11731:8515:6507:13508:21963:21975:2732:20102:9261:20663:22476:5128:10653:39096:34337:36725:12761:1362:25105:36730:9613:2002:13916:6562:19145:30067:4765:17524:19474:5908:11901:22849:13326:13328:10410:23:11888:22847:35350:5960:10415:13349:35098:5996:13379:6004:22842:35017:9347:22837:6029:13411:18525:3854:19509:6073:17287:10444:6097:13448:6101:1709:16362:22813:3819:11842:6112:10459:1730:15656:34573:34552:9411:13470:10464:17974:6140:34367:21305:162:21302:11815:34351:6178:17710:6183:11813:34186:22767:34159:11797:6234:1774:6243:34111:13582:202:17245:22759:33829:13612:19609:6335:33777:33705:21255:21254:21248:260:22715:3673:1817:33502:11747:3658:33431:19652:33328:33318:303:18163:4754:33301:13685:33278:33265:16431:19684:11724:8611:32859:19740:9528:32813:6579:22656:32738:9535:9538:32681:19767:32661:19768:21194:21190:9550:13809:13830:32510:19784:6692:17163:32443:19792:3527:21160:32361:3522:16464:32310:11650:6750:6751:13908:411:19802:10608:10609:1958:6788:32103:18763:13936:19828:22556:11620:11619:17129:11609:19861:17115:3435:31582:14012:31493:22529:19917:9610:3407:31369:4882:22488:6957:6988:31081:31052:31039:31034:31023:3370:30983:3363:7059:30914:19950:7112:4522:14138:519:19996:20014:11496:18437:30551:7152:14171:14180:18319:30476:20035:4923:550:30397:17042:9679:17779:30393:14203:564:30211:7232:3251:11459:17029:22357:20071:17607:3232:20072:7269:15850:18836:30052:7293:17007:599:12324:20114:7309:7319:15858:20116:16998:3163:14284:3150:29803:4978:20138:14323:4448:16985:29613:22313:29595:4990:22307:29565:18990:11383:29432:19000:7502:7521:7538:11323:22264:22259:12265:9788:22257:29173:11318:15912:5014:22223:18413:29078:22219:12694:20206:29074:740:20215:7593:29013:16910:2973:20284:9822:28712:7677:28402:20322:28223:28192:18821:2899:39488:14562:27992:7795:7800:27741:20352:27575:14613:7875:27459:20363:19082:2865:7906:20386:20404:2843:11210:18397:20415:14693:2802:27178:7985:2796:22070:39394:14728:14733:22053:2790:11174:19102:20443:26805:8047:5093:11163:26785:881:12736:39247:8068:9927:11147:14778:26703:26654:5105:8106:18015:11116:19116:14811:39154:26564:9946:8138:938:11108:14824:26497:9952:18914:11092:5127:26367:12758:9960:11078:12763:26341:26226:14882:39059:26205:4809:19152:5149:21970:26172:2588:2581:2575:26060:26057:26020:14924:25858:25777:8360:20608:25680:38953:14963:11002:25608:18359:25551:21932:19160:20660:2487:25505:25436:25425:15010:21908:8452:25389:8474:8491:8495:15044:15047:21894:8512:8526:10934:21887:38778:8557:2385:21881:8619:20747:24722:2348:20756:12544:2329:38718:16635:10874:8697:8711:8712:20793:12829:2287:24173:24044:15257:15266:10102:5237:23891:38553:10829:2242:7215:19223:20885:16149:5247:23670:10142:21760:10145:23574:23550:23484:8893:10774:10162:15361:15364:2163:15374:2152:15382:12860:16173:8977:1287:10180:15402:9002:10738:23212:15417:38314:9048:10204:9063:21721:23076:9071:23043:5280:9081:4278:15458:18776:23021:12879:21052:38101:23000:22991:18775:9171:9173:9177:37916:9253:22875:4844:21659:9285:18328:12909:19237:18182:12150:21637:12920:17482:18188:5359:4233:12957:1420:12959:12967:4210:1432:37323:5431:5434:4178:10273:37174:12102:37067:13022:1460:16255:5476:17459:1469:37005:5493:36930:17447:17445:17444:17440:5527:4135:5554:36738:19307:36643:12057:36607:13104:13110:36533:13120:36471:1526:36417:13141:12039:36402:5668:12028:36102:12008:4035:4026:4020:17386:13223:10363:5777:35918:10372:13248:13254:13255:19426:5836:11933:35661:1627:13283:35605:13293:21458:19439:21450:35571:22856:6:10165:6354:31679:6884:12236:18093:37:9332:1282:13769:18762:45:16175:57:9350:9351:15620:11708:31628:4852:4854:9366:17657:33726:9378:18430:5199:22810:30278:18063:6351:16195:29236:12804:17972:17625:21699:5078:20179:9426:17088:4874:22771:170:9431:7229:9433:17758:4533:5084:29968:17994:22765:13485:18893:29272:12355:33026:30906:16992:22735:1389:30504:19952:274:275:12809:281:9492:18482:1399:22688:298:18723:22673:4525:10253:17718:15740:6914:39267:5091:1416:4901:12354:7078:9533:19207:9540:34639:6923:29949:18703:11324:38351:19752:373:12739:6447:34759:12432:19574:19108:21571:31421:17646:15767:10293:6341:4774:407:1481:22579:6934:12521:14311:1484:22560:424:7456:29438:7175:29928:38329:436:18691:22546:30473:21549:22536:14030:3326:464:18246:30833:34517:29483:6636:9633:31327:491:17497:22473:9640:17782:18107:9643:509:18657:9646:21514:19120:14233:22445:10341:537:538:22426:5116:18682:7495:22411:1571:6955:16302:6079:4487:13534:17533:33656:15841:31783:14039:580:6250:17004:1617:3101:1619:19220:3220:3400:22342:21467:12166:4339:22332:618:22326:6223:17586:9729:32995:19919:9737:22317:21430:10403:651:11411:19142:9757:21412:6868:1663:10413:18842:7332:17069:29255:9798:4700:9804:6580:733:737:18422:6618:12665:16943:7335:38166:12833:19761:18248:15938:19157:2997:7401:771:9838:22157:6156:4440:33894:21341:22144:5155:16356:1703:16358:797:4770:30107:16366:1723:22125:34118:807:1734:812:5157:16371:21310:7585:17982:9881:840:12277:848:29862:856:858:6303:20013:22039:15990:10477:32698:34643:5158:5009:6864:22025:17056:38569:904:4277:16397:14425:1790:11434:5164:33243:30013:29846:3384:1802:21993:12785:4404:3299:9959:9961:21243:14363:9962:21984:14200:14081:29404:19586:10531:34021:17016:7023:13765:996:16042:18499:4634:1833:1013:38908:1017:3086:21217:21950:7139:10012:4778:14244:39502:11357:6286:21923:1063:21200:38448:29819:14096:37955:1088:34591:7036:7274:21893:21891:10068:21884:1876:12713:29543:1117:37881:19066:1124:21863:4756:10084:11860:21854:29146:38825:11556:34137:17177:12855:3606:17500:21808:21807:1166:7155:10116:16136:14297:16460:1215:1927:34086:19867:16158:5197:14105:6589:18469:39412:11491:14252:29022:13819:11872:2992:7611:28970:2987:28937:13820:14463:7644:28865:3556:28771:35036:13824:14488:35116:11273:18412:35136:28576:7692:7697:7698:7704:19495:13362:7714:14513:28413:16880:28382:28371:14522:28329:4751:7748:7767:16875:13340:6526:35371:35382:27866:27844:27814:7814:19486:20337:14591:27718:27696:3894:20342:27650:7835:27641:27635:33352:17660:19780:35436:11895:2875:5920:11227:27502:11899:27498:14628:16862:7884:5915:13840:17317:7895:2866:14642:16857:33355:16853:20400:27433:17166:27356:27333:32481:19460:2817:13303:27144:14712:3928:11926:2795:27030:14736:35570:32460:20437:2786:26931:35584:11173:26839:20444:8043:32920:32439:18815:11157:35599:35653:14771:20454:13279:35685:8094:26636:26620:18811:26592:35786:13870:26528:35790:13874:20493:26475:35824:17352:13241:32333:5789:2630:20516:20523:3968:11060:18277:11055:17377:11986:26207:14881:6402:12389:8251:14897:11039:5753:8265:12512:33489:26058:8279:32278:36008:14915:8295:13206:8303:25897:20578:5729:8311:14926:17651:18364:4027:16725:13196:13193:14942:2542:25722:3626:19795:25648:32237:12017:4057:25606:25584:6754:10975:8427:25443:16688:8454:2460:6764:5680:18238:8482:18870:19692:3663:25267:15049:36343:2430:15073:15074:5650:18783:8570:5642:4093:25050:8585:2383:2369:24868:10902:24797:24745:17418:16644:36553:5598:36582:10882:24532:15165:10881:24516:13921:8686:12062:24489:18908:20771:36702:6787:4120:4713:10863:6789:13074:24267:24262:8736:24207:16619:15229:15232:4124:20835:20837:24023:13925:23950:8790:4133:15262:10833:20845:5523:20851:20853:10824:20868:20883:10814:4825:18779:20899:23616:18778:2184:36979:18895:13749:8900:23453:20932:37024:5480:10762:6373:8943:6813:20945:18876:8955:3486:4172:17962:8986:2139:23264:10740:23203:12989:20964:2125:4658:5424:15424:20989:2121:23159:5418:23078:2102:6827:18112:9082:10712:23024:21046:9101:9108:37344:2070:37354:21063:23009:4572:31917:22996:9152:19859:37548:9176:18894:37566:4230:9202:21098:37601:12935:5360:37607:9226:12381:15562:37633:22897:13752:22891:10654:5344:12144:37699:19255:10644:21113:3466:22873:22872:37719:16485:4259:1987:6846:19236:10624:9296:39526:14199:12690:5017:7197:19024:19028:6647:5025:39518:6124:20055:4693:6118:12254:4703:7575:39433:6511:4384:6444:6105:39427:7450:11470:12719:29530:6104:39392:19095:39277:39252:12734:5099:5104:6508:3008:39177:17804:17298:5124:19138:30198:5138:39054:38985:19156:17032:29524:19559:34829:19555:4318:38917:38912:38864:5182:18126:34259:4315:11805:19166:17808:38799:19198:19201:4302:19216:38762:6606:7254:18502:13526:30133:7464:13792:19554:4293:38570:4288:38552:38547:20076:19550:4286:38424:5255:34294:38400:29509:38355:5267:32672:34295:38190:12876:38111:20094:3565:5300:37993:3017:19230:17640:30022:3460:19691:3457:34831:3208:31793:18244:33668:30019:31781:29196:31756:31736:14250:33253:31718:17970:29999:7598:14434:15607:22846:28987:13398:31668:9336:44:28976:29474:73:28960:16915:28959:28941:22833:14458:34986:9363:6016:31595:6015:18538:22816:19682:14467:35001:28801:34841:28774:131:28742:7660:7661:13823:31543:35043:13380:7671:13374:22785:143:9422:158:159:35118:13443:22776:11353:11266:4593:7696:29472:180:20309:28518:9437:20311:11881:28510:196:20312:200:7711:209:11260:33747:19899:230:35255:247:11592:256:28337:31495:17637:18555:3880:13350:277:5962:22692:3648:17906:28156:13344:28107:293:5952:14554:9508:310:13621:6438:15741:11890:11850:20331:2892:6669:13759:33323:335:7812:3683:27759:31470:13675:364:7821:27723:9549:9551:29452:7826:374:15761:20348:16930:19543:33788:31426:7311:22621:15770:11232:3548:35424:15774:2876:22590:13324:417:7861:31401:13500:11760:17316:35456:29066:19677:439:9600:27479:15792:27464:12456:22526:15804:22475:20379:14640:6489:29161:9642:13841:11579:19477:18263:22456:14647:33403:514:27440:22453:22450:7921:22437:27410:3540:7925:7926:15826:5893:14666:547:14671:27321:20412:22408:35532:7955:27272:15836:27227:14687:5886:13304:5884:9683:568:20427:5879:27190:11191:35547:13666:19698:6078:573:22359:9694:27081:32471:14721:11927:11928:22354:27060:31273:3655:2794:27015:22349:596:6329:8019:7499:609:31220:13295:620:32451:11412:26895:26873:26854:19604:17921:11168:9741:15877:22306:12528:668:13736:5857:22299:9761:29899:15904:13284:22234:6703:32919:14776:26707:13863:3697:8082:8084:22220:742:20459:26668:6413:22200:18271:31147:2726:17834:31140:20474:26615:14799:26602:31094:3059:14807:35783:33462:11114:9835:17639:2698:785:13262:26525:2695:26514:11654:14278:19432:791:19425:29407:2670:793:22132:17348:19706:16766:801:26425:20506:22127:31092:26321:2638:11074:811:31084:15969:8191:35894:20522:11574:6487:4652:9894:864:26223:2614:8205:19385:14867:6302:11052:3993:3997:22029:3388:20547:20548:2589:889:5761:894:19540:32311:13886:35979:32873:9932:5756:909:14892:14895:26095:7347:917:9941:22017:33279:13216:11034:17178:14905:7010:944:35999:953:31070:33506:956:20562:11994:25931:29840:36014:8298:19357:962:966:32807:20569:6150:14923:34035:21958:2564:1008:21955:34454:29398:25807:21944:11015:36066:1029:4043:3376:16723:12010:4047:7029:11777:16072:20601:36112:3516:10044:13188:8364:25687:20125:3151:20614:1098:16717:34488:18010:7040:4064:20650:25616:13904:1114:18096:14978:4066:25601:21874:16701:13179:13177:2496:32933:6389:1134:17156:6757:2485:16697:1140:10972:21850:16694:8433:11716:7049:13909:25404:25399:8446:4633:34871:10960:36229:18535:17216:21764:20664:2455:7564:15030:20674:8479:25352:10153:15036:16159:20680:19798:16926:8502:2444:33562:25269:30932:1263:29766:20693:8514:4084:25254:36331:36341:18793:10172:13152:36345:25199:16170:2426:15066:19620:8541:8542:36359:10932:10181:20715:8551:36367:14300:20718:10926:1305:2410:19327:8566:20724:21723:29753:2408:5647:1320:36405:10210:7064:16662:36432:21708:15093:21706:8595:8597:10908:8601:18781:12542:21689:1196:5624:2367:19937:32209:24843:20734:36502:24825:1355:8628:24814:32199:3731:16210:2356:16211:21684:24732:15133:36504:33636:8647:2347:36523:24637:36534:24615:18203:6067:24592:17953:24579:20752:17858:18303:10885:21655:18160:21649:21640:1408:30899:5581:21627:1419:24508:21617:24486:13923:6786:24442:24437:15187:15189:34093:24341:34490:1434:24330:10269:11396:15198:21583:16252:34097:24288:24281:5559:20803:17997:10303:11790:1497:1500:30822:5552:15225:19809:16276:8754:36750:21531:13472:15234:36762:20825:4130:34775:13065:11523:10839:2269:6794:21497:23959:36767:3132:13560:21485:10360:18902:21477:23892:20840:18338:3494:13637:36805:30809:10379:4138:13557:8810:7110:5518:11631:10385:15281:2254:5516:20854:23823:36861:19972:10388:2245:23752:17959:2235:33155:32130:21418:23687:16591:21411:23675:10416:20897:20132:10420:17451:19810:2204:32112:30713:8887:13034:10429:10431:23457:29635:1692:20008:10454:20926:8905:30681:23448:8916:5484:16572:7125:1756:13024:5477:34881:23398:8933:3487:6244:13019:23367:5468:8939:21285:23340:6501:21280:23333:16392:18000:23319:10752:10509:21264:23318:23306:16408:21258:23267:32585:10745:17466:15399:15401:10527:32057:21235:5436:23217:37275:10532:3745:10540:11688:23186:6238:17900:1859:1860:37300:11705:6461:21195:31973:12115:10557:4190:23112:4191:12119:10722:37333:32777:2106:1879:30553:4200:9073:37341:23044:31963:21175:6643:1906:23038:13952:31959:4203:10708:30548:23022:11317:12125:21146:23019:2078:10700:1934:7573:6129:37352:16531:10616:31937:4219:11799:12564:37410:10689:15492:7421:9140:23001:12571:22997:12573:15498:15500:9151:12575:17968:37522:31887:4570:22984:21064:9169:19835:17663:4866:4548:18947:31880:10676:22972:9189:12589:18726:11331:16513:12601:2033:22967:2030:2028:37591:29566:30500:15535:34800:17771:4234:22933:19695:17047:17775:4236:16509:15558:22910:12620:4505:22900:4931:22892:14184:32708:22890:4940:19260:7180:4947:29562:11482:12913:6128:11755:18966:17597:20042:16488:12306:39590:20043:18926:4984:4986:34807:18128:20168:4706:37764:10292:10294:21570:10296:33453:32493:1496:5905:7934:7935:7936:17324:12488:27352:35527:18582:16269:13307:21537:16272:20411:27322:21536:21520:1530:2829:27304:21508:21498:10345:1582:7959:1593:10378:27212:11922:1620:10381:1629:21455:1645:21394:6688:21389:1673:27193:21380:14699:1680:10433:33069:20435:21345:16355:27176:21313:27132:10461:16378:27115:27112:27085:21300:1751:16384:21288:21281:10504:1813:3537:27061:1818:1829:8007:10535:1842:10545:21214:2793:1858:11179:10554:19444:8017:21199:10558:21187:14743:1894:16448:19437:16452:1910:10581:1916:21144:1937:18466:18295:26837:8036:5859:21134:4845:12568:35589:12356:12595:16816:18724:18709:26797:4519:2770:18384:26796:2767:4910:4515:6702:12349:18890:18697:12344:8063:2758:20450:17778:35657:17783:26757:26725:18685:17790:12333:2749:35674:32390:8078:12647:12332:18964:26691:17797:2741:18671:14784:12300:4976:8090:5843:39564:39543:18995:8096:35719:12274:20463:19008:19011:12392:12467:12698:5030:13664:19031:2721:5839:4402:18600:26604:32385:8117:19035:39506:12702:18604:32380:4400:26569:39482:19048:5052:5053:12716:16787:5058:4377:4375:5067:13871:12231:4363:12724:2689:5076:18456:5077:4362:2681:4352:39243:39242:4345:12749:39081:38979:35837:26459:5156:12779:38970:2645:18044:13244:8168:5795:33464:6726:38965:5794:38963:5165:4316:13240:4583:38845:2637:12190:26311:19404:38796:26282:12175:38733:26264:12821:5219:38681:8194:38648:12827:4294:38583:33484:12845:38502:4285:13230:38418:38383:11969:26220:19227:38312:38234:18800:26219:38228:38223:20525:14873:4724:14875:38091:17381:38027:37954:5762:2593:4275:37870:18653:31864:33655:19860:3669:13709:3670:8242:3628:14887:26138:33666:13980:3439:31759:17213:18012:17391:31735:6356:32819:3676:19890:31607:17648:31540:31533:32294:26072:31521:31500:19611:3426:2574:3420:6924:31449:2572:4018:19907:31433:11584:25958:25950:6936:33808:32815:31376:6515:33815:18101:14035:5732:31306:6563:3403:31287:31236:3521:6967:31209:8312:33822:31202:3698:2561:31151:25833:14930:11023:14057:11769:4031:17238:11016:2549:12003:36058:17884:6986:2546:6564:33931:19632:19589:34012:25764:17243:18852:7008:14943:3385:14079:7014:31065:8352:14946:12012:18363:17407:3617:31027:33116:3373:6285:25681:3372:8369:11006:25679:11559:8373:25638:31000:36136:25637:19744:34081:32863:13768:7051:8384:25630:19576:4062:17248:8389:2518:14106:17251:6502:17093:19936:17197:17701:13575:12438:30902:8401:14980:14115:20651:25593:2509:12501:6270:6267:18154:20653:17080:30860:13566:10977:11794:25537:7098:25528:6253:11522:17068:18795:11509:13175:30685:3308:18440:33231:15003:14159:5687:15004:3510:8437:30673:36216:14162:15009:11497:34129:32763:3746:8451:20021:4072:17260:10961:3288:4073:20033:17049:15019:34174:30486:8464:20034:11485:20665:2453:15026:5679:10954:3277:30431:25368:30412:12027:11479:3270:36276:7198:32697:32689:5673:12538:25307:18235:34191:10949:14205:4081:25277:20056:30352:30339:3265:5669:17039:3752:30253:13913:32683:6219:7233:36318:17034:34216:32675:34266:25230:3231:17025:2433:4614:25221:12033:19547:14230:10937:30106:2429:18461:33062:18854:15068:30043:34324:25175:25170:11431:7291:8548:19545:6185:34339:3192:13796:29965:11752:8558:3781:8560:13696:3184:25151:33063:18227:25144:29940:29916:6167:29909:6165:7324:20115:34397:34407:29870:25026:32658:5636:2393:17184:29856:6379:17946:20123:36448:36459:18630:8593:2372:3158:36460:6145:8598:25020:3149:7370:13124:19531:3146:18491:14307:20130:13122:19668:11838:4094:7407:11391:24842:29633:11387:19660:7418:32927:29589:5619:6456:3814:11841:14342:6115:24736:34602:7453:7457:20178:33605:24711:10896:12522:13115:14356:17282:10894:10893:24666:7470:24661:17419:29488:5609:29478:6099:18512:34625:14375:7492:7494:11349:32588:24549:17423:14386:3503:20184:34659:4106:3043:29300:18932:5586:13813:14395:7525:4786:3499:3034:34778:6058:29252:14403:3025:24474:24446:17148:16935:14414:29163:36621:24428:24390:36652:34844:34845:7565:7566:17670:7568:6034:7577:18463:6033:3561:3003:8717:13402:15201:24319:3557:15204:20798:21812:15606:17:29034:19:39:15612:7604:15215:24241:36745:16622:18051:22834:28981:9373:33639:20817:24187:13395:24183:14443:9376:22822:20822:20238:22795:7615:36759:128:129:34952:28963:2279:9408:16918:20242:164:24082:24074:174:20244:18193:17438:20838:15251:24027:19498:24019:15677:6018:194:219:225:22747:22730:32572:28871:7640:259:22669:13057:9513:9516:329:18161:28847:20848:15275:20271:22663:5521:9527:338:28799:350:2960:9542:22642:23832:13386:22636:15760:22629:379:23802:8831:36879:380:23768:9557:23730:9559:32147:35048:23698:8847:35089:35091:390:14484:15303:28675:22603:23684:14487:32115:20893:36946:22571:22565:16587:9581:13042:14489:23615:13041:36949:28643:9589:19496:23558:20904:15785:4163:12096:23530:11626:17961:28603:20924:14497:28598:9594:434:33645:23472:8895:22547:9603:22501:22474:9631:8902:15340:15812:494:36993:37015:18644:35139:23451:2934:505:28561:15348:22412:555:22396:8923:22376:579:37027:37056:15846:22352:5471:2166:22346:600:28490:35178:9716:22333:35188:23357:37080:23353:35247:22325:9734:634:32557:20942:15882:10754:28401:684:32531:688:2153:8957:15380:33652:35262:696:5975:8963:15385:8965:37098:23287:8968:2910:37101:16566:23277:28346:13012:32080:721:13009:12549:37111:37124:15396:8985:22205:37182:12397:15925:22198:35289:746:8993:28228:15403:22191:23230:16562:12997:9000:37233:32045:22174:28202:759:15410:28198:37276:32024:32012:5432:17981:16877:23187:768:20970:31998:2906:10734:9027:7755:5959:15421:15948:20984:35317:22146:12111:9849:28115:23175:21014:28111:37302:15431:9853:22135:2904:23115:19491:28062:15436:19488:6525:15957:9863:15442:23081:3623:22112:827:10720:28029:11245:13338:17135:21036:22079:10715:4201:4202:15982:28003:27994:33340:18462:2898:14567:861:9085:9916:21037:27947:23033:35376:17173:2088:21041:16000:9925:6550:35397:897:9100:916:7802:2080:15473:18556:27879:22003:4795:19275:10697:9113:27850:934:9116:17984:16017:7813:16529:16018:27797:12964:21992:37395:9130:18818:961:37418:9136:10687:967:9965:9970:21972:982:18316:5389:985:16037:22995:27685:1004:21952:10006:2884:10015:17227:2059:37524:4670:10021:17477:4229:21929:37536:2056:21925:9168:10052:21067:1082:27580:10057:10683:27569:27556:1089:2051:37564:2881:21087:2042:18311:5370:1108:21088:15523:27538:2040:1111:21871:12942:1128:35454:1130:1133:1139:10090:19261:7867:21824:10107:21772:1223:6425:10139:2025:12556:9219:12137:27501:22932:16162:21749:27489:1262:21744:22918:37623:16174:21102:1295:12928:14633:2015:1303:10202:2014:12138:21709:2011:9251:1348:1353:37643:15571:16209:10229:21682:7898:19482:21681:15576:15577:9265:17484:21670:16493:21661:16226:2858:15581:1394:21633:10262:1425:27447:10266:16249:9282:19243:3910:6845:4798:22862:1455:1457:10631:7917:19234:18118:27421:1465:1468:4271:37779:4273:14075:20480:20508:20554:20644:20657:20658:13:9545:20728:20731:21:2783:20751:20772:20814:20834:2791:20843:20856:20858:5251:20862:38:20871:20875:20878:7490:48:20881:20900:11544:9576:58:20946:2816:20958:5265:20971:67:20994:21009:21012:7514:5272:21043:21045:78:9598:21050:5284:85:21066:21096:21100:2861:21110:94:11577:21116:97:21197:21220:11588:21247:21253:5302:21265:9620:21291:21312:21322:9638:21377:11600:21395:7559:2895:21436:2901:21443:21457:7570:21482:21503:7586:21526:21554:21603:21618:21622:21625:9667:21630:21663:7600:5350:21664:21692:21693:21718:21726:5358:21783:21787:21797:21803:21806:21825:11644:21826:9698:21841:11648:21917:22051:220:22173:22196:22275:22286:22298:22309:22362:22370:9723:2984:22397:22404:22416:22439:251:11670:22441:9733:22471:22482:11675:22493:22506:22522:7672:22537:22570:5413:22615:22638:22682:7682:283:22706:22749:22755:3027:22756:22762:296:297:11704:22781:301:9766:11707:22786:308:7703:311:9773:22791:22852:22857:22919:22926:3056:9780:22965:23013:23017:23030:5455:3067:23075:23093:23129:11728:9795:9796:23135:23138:11732:23166:23169:5473:23219:5479:23225:23260:11743:23274:5487:3104:3105:383:23286:23360:23368:5491:7760:11753:393:11754:7764:23385:11757:23401:23506:23569:11764:23625:7775:5513:5514:5517:23627:23642:421:422:23661:23672:23740:23751:23806:23814:23825:5542:23839:23874:23878:11788:446:23889:9855:3183:23986:5558:3187:23987:24062:24158:24200:3200:24251:24295:7811:24316:477:9867:3209:24365:24367:24455:24466:24470:9878:7827:9879:24472:24522:24560:24578:3233:7838:3237:24598:24628:24685:9901:9903:11832:24765:9907:24790:24809:5613:24824:529:24841:24874:535:24905:24979:7864:5627:24990:7871:24991:24992:25031:7879:5637:7880:25066:25068:25079:5643:25100:25210:3287:25233:25234:25248:5651:25317:25320:25342:25358:25420:585:5661:25468:25471:25507:595:25548:25567:25581:25592:25704:9975:25723:25862:25887:7930:25927:25982:26050:5689:622:11915:26082:26083:26090:631:11920:26099:26127:26184:26191:26259:26268:647:26272:26375:26388:26419:7958:655:26420:5716:658:660:26476:26532:26633:667:26640:26673:671:7968:675:26698:26711:26719:26845:11951:3378:10042:3380:10043:26851:7978:695:26882:26968:10053:26971:10058:7987:704:10060:27045:27065:27072:27118:27119:716:5776:27124:722:27194:3425:27209:3430:27248:10079:5784:5786:5788:27291:27419:3448:27434:27444:10087:8008:27470:27506:27511:8012:27532:27540:27619:27637:27658:27664:27697:772:3480:27713:3484:27732:27743:27772:27806:3491:27915:788:8035:3498:27993:10113:12006:28046:10117:28091:805:8051:28096:28142:28178:28193:819:820:3519:28251:28296:28315:28335:28361:28449:28458:835:5855:3546:28592:5858:843:28593:845:5863:28604:28609:28634:855:857:28636:28681:28694:28751:28879:8091:28929:29000:5885:873:8098:29018:5891:8100:29027:29111:5897:29124:29148:893:29152:29188:12073:3592:3597:5914:29194:910:29275:29327:29367:5923:29372:29397:29433:29481:29521:10196:29523:29546:29646:5938:3620:29714:29738:8136:5947:8137:29784:29849:29875:29885:29931:968:29960:30011:8154:30144:30153:30159:976:30214:30215:30274:5979:30305:30321:30360:30419:8176:30453:30457:30466:30472:30510:10234:8192:30545:30612:30694:30698:30704:1015:1016:3674:30797:6003:3685:30830:8209:30850:30898:1030:12162:1034:30910:3700:3702:10249:30917:3710:3713:30967:1047:3717:31001:31007:3721:31060:31080:31104:31210:31276:1065:31281:1072:10267:31296:31375:31396:10274:31468:10281:31471:12184:31541:31596:31633:1100:1101:12194:10299:31662:31665:31704:31749:31883:31941:31993:6068:12212:8283:3773:3775:32043:32051:32065:32074:32136:8289:32181:12221:32225:32234:8302:32287:32340:3797:3800:8309:32396:32402:32435:32436:8320:32440:32453:1176:32467:32482:32500:32570:12246:32586:32666:10364:32690:3832:1205:32749:32841:3836:32934:32942:12259:3841:3843:33005:6142:3848:33047:33130:6146:33163:33168:1237:3862:33193:10389:33242:1249:33264:33287:33393:33451:33499:10400:10404:33576:1260:33581:33625:33657:33671:33673:33751:33758:33778:3891:33780:33828:1280:33934:8399:33946:33950:34004:10435:34015:34036:34121:34133:1298:34152:8414:34169:6209:34171:1309:12337:12338:34230:1315:34271:34272:10452:6224:34277:34289:34360:34422:34544:34574:34594:34678:34687:3938:3939:34688:12373:12375:6251:1359:1366:34801:34888:34903:6257:34944:6260:34949:34963:34978:12390:8467:1386:6276:3965:3969:34983:34999:35002:35016:1400:35044:35063:35073:3980:35159:35165:3988:35320:1418:35323:35333:35337:35365:35423:35425:35440:35465:35491:8508:10517:35495:8511:35513:35515:35579:35583:4019:35588:1463:35602:35611:35677:35718:12458:35720:1478:10537:1483:35829:4038:10542:8538:35954:35973:6349:4046:36002:36004:4053:36042:4056:6355:36068:36086:4068:36107:36156:10559:36197:36208:36211:36263:36314:6377:36361:1540:36439:10574:36449:4097:4098:36488:36536:6392:36602:36620:6397:36624:36640:36766:36768:36832:12496:36933:37004:37181:8599:10599:37203:37240:37274:37314:1590:4131:6429:37358:37379:37391:8617:1602:37401:37454:37470:8624:37544:37578:6458:1618:37681:37715:37865:37941:38021:38024:38033:38038:38142:1636:38147:38186:10646:38198:4177:38200:4181:38203:38240:1655:38246:10660:38282:38291:38293:38376:38421:38494:8658:12588:12592:38562:38620:38641:38642:38671:12600:4227:38675:38710:10682:1687:1688:38732:12607:38809:38920:8688:38944:8690:38951:6534:1701:6535:38989:38997:39013:1710:39034:8701:39069:39152:39160:6549:4261:39180:39208:39288:39293:10713:10716:8715:10717:39348:39358:6572:8721:39382:6576:12641:39454:39455:39475:39552:4300:1761:10732:10735:10736:6593:39580:10743:39592:39598:8743:6600:12677:12699:10757:6607:12747:12748:10761:12772:12793:12799:12816:10773:4338:12819:12832:12897:12907:12910:10797:1808:12925:1810:10804:6634:12933:8774:12946:12971:13028:10816:13035:13058:13063:6654:13126:4379:13131:8787:13142:13146:13147:13184:1850:6664:13232:13269:10837:13270:13273:13275:13309:13315:13323:13331:13333:13355:13390:13399:13418:13419:10861:4421:13426:10866:13433:13444:6697:13450:1902:1907:13457:8838:1912:13481:13487:13521:13574:13585:13600:13633:4444:13655:8853:4450:1932:10900:13682:13695:13698:13714:13748:13750:13778:13794:4461:13860:13864:13873:13896:13899:13906:8877:13926:13933:13959:1979:10936:14064:14072:14091:6746:14146:14150:14166:6756:14177:14209:8903:14210:6766:4500:6770:8908:4506:14260:14294:10956:14305:14324:6781:14417:14421:14493:14523:14539:8930:14572:2032:14576:4545:8934:14588:14597:10987:14614:14650:14652:4561:14659:2053:2054:14694:8947:14702:2062:14755:14761:14764:14770:14806:14812:14857:14864:14870:2075:2076:2079:14899:11020:14919:2089:4592:11024:11025:2093:6847:14928:8982:14947:14949:14961:8990:6861:14974:14976:15008:15032:15095:15100:15109:15123:15125:15131:2129:15141:15157:15172:2134:15210:15231:9021:6889:15265:6892:2145:6894:15294:15300:15332:15390:15445:4660:15456:15478:15481:15501:9043:2168:2170:4674:15589:15600:15618:15659:15662:6927:6928:15764:15815:4692:6933:15828:6937:15873:15913:4702:2198:15939:15972:15976:16014:16036:4711:16062:16080:16082:11128:16126:16141:16145:16183:16213:9084:16219:11137:16242:16259:16268:16395:16401:16413:16438:16454:16468:16470:11165:16492:16518:16532:2261:4755:11170:16713:16719:16741:16755:16756:9132:2280:16789:16800:16825:16855:16871:16876:16885:16921:16980:17000:17015:17030:17055:2301:17078:9156:17097:17101:11212:17103:17118:7037:17125:7042:17151:2327:17154:17179:2333:9174:17192:17223:4833:17237:17259:17274:9198:17353:17361:9203:7072:17362:7075:17394:17408:17421:4858:4860:17434:17436:17437:17448:17480:17490:17550:9222:11248:17554:17600:17612:7107:17626:17627:17652:17658:9239:4898:17707:17709:17723:17736:17742:17745:17756:17773:17781:17787:17796:4919:9257:17801:17807:17809:17856:17880:17893:17912:2446:17916:2448:17940:4936:17964:17990:18009:18042:18047:18100:39610:18106:18125:18127:11308:18175:18179:18185:18192:18197:18213:2483:4963:11325:18223:18241:9339:7191:18259:18283:9344:4981:18307:18370:18385:2513:18428:18445:2517:2520:2521:18493:4992:7208:18498:2530:18515:18532:18533:7222:18547:18557:18575:2539:2540:11354:18583:2544:18626:18636:9379:18639:2556:11362:2560:7251:18689:2567:5029:5031:18706:18719:18735:18744:18758:2582:18782:5043:18839:18880:18896:18909:18961:18963:18997:19003:19006:5061:7281:19013:19020:19055:9417:19060:19090:19097:2619:19123:7301:19135:19181:19200:19248:19252:19287:19293:19392:5107:19397:19416:19445:19446:19449:19453:11417:19504:19523:19588:19606:19617:7344:5132:9460:19644:19646:11430:9464:7354:19657:19678:5144:19701:19720:19728:19729:11445:19757:2697:19782:2702:19786:19823:19825:19843:19855:19858:5176:11461:19910:19933:19934:9494:19964:19979:20016:2730:7399:20047:20090:20105:9503:2745:20106:20163:7414:20188:5205:20204:20225:20246:20294:5214:20330:20370:20398:7436:20405:20468:9530:7443:10170:8394:9255:15821:10:34875:14462:13662:20712:34848:4036:8405:33459:22449:20714:9279:26194:16665:16658:17853:21126:42:34814:8425:12270:4059:34799:28806:60:61:22459:9309:20741:26178:69:70:9310:34774:76:33437:24916:25876:13670:8459:33421:28800:15814:25872:9338:34770:15111:9346:15427:12297:21139:17958:16642:109:13427:9359:26167:15208:33388:4107:4108:12314:34745:14474:124:26153:34717:28756:16633:8516:12325:139:25857:8517:34712:4122:147:34709:14479:23928:34707:33337:34704:18339:8529:9392:34702:33332:34698:4149:16457:8534:25856:4151:16453:8539:12346:21167:8544:28718:8547:28708:33312:226:23571:231:4162:33309:12363:22491:34685:8555:9434:249:16445:34683:21176:22496:22497:28699:265:20790:4182:16627:4185:9448:13429:24879:26143:34634:16623:23924:34633:28612:24871:8590:33214:12403:8591:33207:18275:22510:13439:12411:34619:313:315:4223:13703:9482:15114:33189:4231:330:8613:26142:33178:33170:34611:22515:16430:4239:22516:9501:13453:26129:16428:34595:34571:23191:9514:14504:33134:367:9520:4250:9524:377:23192:8639:33133:9531:8641:14506:392:34523:24837:34496:20841:28552:12453:16421:13488:33117:9556:4267:25800:4270:8653:8661:23776:12460:8665:4283:18444:21244:433:4287:24282:34416:20860:4297:4298:12466:33045:24820:8694:9593:8698:463:33036:33027:13495:16412:33002:474:476:479:23200:32998:21257:9614:32988:34398:488:8706:8707:18406:495:34375:32981:501:502:8718:24808:18008:28508:513:16403:20877:28507:28495:16400:9657:32947:8733:20879:24799:8737:18257:32944:8739:4337:16593:8748:22555:32938:13509:551:32935:16390:8756:34206:8766:23918:9689:9691:8768:32932:32922:4356:4358:8770:34182:9705:28467:8777:589:34172:15292:8786:18138:25753:32884:4373:26088:32872:8793:9732:12523:23310:617:18088:28454:32860:625:14906:630:9742:32842:32837:26041:4390:26012:34135:24264:9753:22573:22574:28411:15216:8835:16372:21311:666:9762:18120:9768:25967:32824:23223:13565:8857:14515:21319:28394:23760:13761:9784:34100:8864:18119:32790:702:8866:20947:13774:20950:25954:15383:16563:21332:8884:18260:23233:728:28358:34062:32764:21339:12594:25941:743:34043:8915:15258:9820:16346:12603:25734:18770:12608:34014:4455:24763:762:28331:32713:4458:9836:773:32703:9842:777:33988:9845:22600:18579:13781:33987:792:20976:9856:28304:22608:802:9859:808:4470:8942:24753:4474:14920:4476:13788:13790:8958:8967:18766:833:13596:8984:839:9885:32668:847:4485:8991:854:13597:13798:21006:32659:867:9024:21375:22619:872:12651:9909:12654:9031:12658:884:13808:33861:24733:33854:21378:9921:14944:16341:14528:9929:24726:9036:13816:9942:923:33852:15763:4528:15221:23250:16339:33830:9052:9053:32564:32539:18968:954:24717:17595:33818:9061:33773:33761:33732:9080:32504:25685:16539:15319:24701:21403:33670:981:984:986:9996:18980:992:32490:4577:10004:10005:32476:32475:1001:28214:13627:22646:16537:10017:10018:24020:10023:32474:33662:22649:14955:1026:28207:33644:28191:32465:22653:1040:32457:1044:24147:33640:14536:21053:25908:32456:1055:25905:32452:14922:24695:33631:15278:1075:28150:33624:33615:9143:21439:32428:17572:32401:16524:23257:33595:33594:33587:25673:17857:10094:32392:9164:19016:9165:1122:9172:10104:19018:33556:16517:28122:1141:21461:10110:10111:19022:33548:23338:17567:9208:13652:17952:28112:32362:10123:33500:28106:1170:21465:10127:1175:13875:28101:10135:21468:4678:21097:19033:4682:32356:13654:9229:10146:32351:9233:21473:13878:10154:23339:33487:10159:24690:18393:19045:32321:22694:4707:4708:4712:28072:19052:1250:14549:22701:13900:32255:19057:1257:18064:28058:4733:15715:13912:4737:10195:4747:4753:4757:28013:10206:4764:25666:32205:22716:4779:25662:4781:27985:10216:32150:14568:1302:16289:10220:1307:19099:15700:19103:4822:32129:15698:27916:14966:4835:19113:21516:24012:13931:4842:21519:32110:1341:27907:32091:22748:19126:21527:1367:1368:19127:15687:14970:32073:25613:27875:1379:4878:27851:19136:14584:14585:19143:10263:25611:32018:27793:4915:1406:27754:16267:1414:27721:21548:4926:1422:1424:17519:4932:31985:27703:15144:14975:27687:1443:4944:27677:1446:1448:1450:22782:23795:19167:24641:18558:10313:23636:4960:24631:17841:1485:4975:21567:22790:13950:27607:22798:27592:17511:21572:24621:5016:27528:1511:22809:1513:27516:16256:10344:23914:15642:1529:18548:1533:1534:18479:14621:5048:1547:5050:31911:27483:14631:1555:5064:17503:22825:10373:22826:15627:27462:5100:19239:24588:1574:27456:14993:5126:5129:10398:18174:22843:15610:17487:27431:31835:31831:25535:5143:31827:18434:27428:1610:1612:10426:1616:15159:23834:24563:39605:27391:1630:23863:39588:39581:10440:5196:1644:27386:1649:39565:12666:25506:1654:10447:1657:17614:13978:5218:19291:22867:16239:39547:1667:1669:31766:1672:10460:5240:25494:21624:5243:1683:39525:13983:5246:13984:1691:39498:12708:39486:21631:5270:16236:1702:5274:39466:17425:17918:27353:23394:1717:24555:18695:19326:39431:10497:12718:5309:39357:1737:5326:22876:39300:31660:31639:10506:5352:21653:18943:24108:31638:31612:25462:19363:10518:5367:10520:31585:5372:39246:39198:39193:25461:19379:17371:10529:39190:14003:31569:31567:39176:25430:39171:31555:5399:31554:18938:10552:5406:14009:31529:10561:31509:5412:5415:5419:15574:5427:5435:39129:5440:27319:39103:1826:5451:5472:17347:16207:10587:31478:39025:17996:5486:31476:17632:10596:31460:5495:31454:22889:31439:27307:31431:27302:14024:38982:1881:12778:16200:17341:12780:16197:19441:38964:38958:10627:12783:19448:16196:10638:10639:18931:24526:38937:31373:27271:12787:31358:14683:18473:19458:16186:31355:5569:5570:10665:14033:38867:15238:10671:5579:38858:12795:16179:10675:10677:16176:10681:10684:38843:23413:38804:24525:17320:15563:1984:15560:38755:19484:19485:5626:19487:5633:1999:5634:17310:12818:16167:21745:17635:38730:38727:31309:10711:10718:2016:27242:17302:10727:38691:21753:25405:5666:5670:17642:38674:38664:5681:31305:2046:31299:5682:31289:16150:38656:25396:5692:5693:31269:17290:31261:5706:31254:10800:2073:2074:2082:38639:5712:38621:5718:2092:5721:25375:10823:38608:5742:31228:5747:2108:5748:24088:19538:15176:14048:5765:14684:12834:16123:12836:38542:38509:38501:31205:23425:23427:31193:2143:5793:15547:10858:5800:31177:38493:23428:17261:10870:12847:5820:10877:19567:5825:24000:38438:5832:21800:2176:2177:38426:17256:17255:5840:12859:5852:31120:19585:2194:38372:5871:31118:10917:5874:21810:38315:5878:5882:14084:14707:19602:10928:17235:12865:18124:2227:27173:21818:5918:27156:38302:10944:2246:17666:10946:38284:10947:18676:10952:19622:19625:2259:5945:38229:2265:23991:30991:38187:18427:38175:5988:2282:18194:5991:27141:18537:2293:30986:21839:19650:15034:5998:27079:2304:38130:18467:30958:19659:30919:2316:19662:6022:18670:18668:2330:38103:11007:12882:6027:11012:30896:2340:30893:11022:38100:38094:6035:6036:14120:11036:38092:6039:30873:38066:19675:38060:2366:21861:38059:23439:17214:30863:14723:22958:11056:18131:2390:38039:11062:6091:11066:25312:30821:17209:2409:30813:38035:30778:17681:38032:6106:11096:11097:30777:6107:16096:6117:6121:2435:17207:19708:14141:15040:38008:6147:25306:30724:2452:11124:37953:2457:30707:17205:18130:37940:6181:11134:37922:6198:12894:6203:19743:17199:37842:12898:19753:6228:14149:6230:37806:6245:19760:6256:2506:11167:2508:17189:37783:2516:37782:11177:11180:2529:17174:17169:2534:19781:6305:17168:30666:26986:6323:37746:37744:37739:19796:30654:37731:11201:6348:2569:19799:30642:30632:30621:30618:18660:24458:12912:6372:16065:17149:37702:37682:2596:17144:14737:30595:2602:16058:11222:6385:6390:30580:18527:6400:19815:24456:12927:14742:30568:30556:37632:19829:6448:17133:6467:16049:16048:12941:11247:37567:2647:11251:30533:16046:2654:16045:30528:22988:30527:37553:30523:2667:6480:2671:15051:30514:21965:12951:6493:14176:21968:11282:6495:19854:30493:18211:30460:6503:12952:2710:37502:6517:2715:2716:19863:11295:19866:30449:15497:30428:2731:37432:21982:12960:6574:16026:6575:11306:6578:16025:25242:37404:19894:17112:16023:12965:19912:37350:37345:37324:2769:19926:2772:2773:11332:6655:30387:37265:17090:11337:15055:26894:37253:2785:22008:6686:11348:19942:6693:26888:6695:37245:11356:17084:2809:17693:6704:2813:30373:30342:6707:6722:26792:37138:30300:37135:2832:30289:14212:18648:11374:6732:6733:17066:11379:37104:37103:2863:11382:13013:2870:6761:13015:15999:30267:6772:19991:30229:6784:37094:22035:37093:6801:6802:26767:20001:26763:2905:37085:6812:11413:26752:22043:6817:30175:30167:2925:25179:17819:24070:17059:6825:15981:30108:23870:37050:37036:30104:37028:11449:13023:30086:6855:13029:22062:6859:14234:20027:36998:36976:26722:36950:6879:14237:30048:20041:36931:30032:11484:13044:36924:30025:15461:36921:36919:20054:36916:14780:36909:3004:35276:3006:17027:36871:36866:29993:6962:29985:36856:20078:36833:6971:29983:6975:29977:11515:36812:36809:11518:3037:6979:20091:20092:11521:22096:13056:6985:6998:3055:36769:15457:36756:26676:36746:13075:29930:15964:7019:18517:17006:17002:36736:3080:7055:14788:36714:36710:36708:24429:15454:11572:36704:36679:36674:22123:16982:25148:11589:20147:25145:7105:25135:7116:16974:20157:23494:15085:36664:7122:36662:11606:7127:3143:29898:16973:22140:29897:7137:22143:13086:14274:36622:23048:3173:18635:7147:36597:20172:36581:22150:29851:16961:7165:22152:7171:3201:36560:23496:36549:22155:18866:7179:7187:3216:25121:14792:18225:36520:29821:7205:20197:11659:20201:29809:36476:36464:7247:15942:11667:3250:20211:24425:36435:26579:7282:3258:18043:11683:13136:36406:15941:20235:13145:3268:3269:22172:3274:16919:20240:26530:3281:36388:36383:15935:29759:36336:36333:17704:36304:3293:7356:11715:7357:16908:20264:26496:13167:7397:20278:11722:3311:36261:11723:36257:16904:11727:11729:36250:36245:7425:36240:7445:20305:11738:13174:11744:24421:17851:25083:29706:7485:15441:17711:11767:29688:3349:36183:36178:16882:25075:11774:17712:16874:36141:29647:3367:16870:24379:23088:7545:29642:20344:17877:7550:14831:22208:7557:22209:3395:20351:22210:7562:36093:29637:18851:13199:36061:25067:29621:7596:29586:26456:3432:36040:7620:22225:3443:7624:36028:20377:3455:3456:36003:14341:18139:3464:17715:24363:35984:3472:35983:16854:20388:29492:35959:7653:35950:11848:3492:3497:3500:20402:7684:7687:7712:7716:18624:3511:14362:13231:3515:11869:7723:35899:13235:7729:14373:14374:26399:3547:16839:20423:3551:35880:16835:15437:35876:7758:11893:26356:22261:23113:29420:11903:29419:3571:35874:7770:3574:13242:16826:14842:29405:16824:35869:35864:3590:7783:3599:13247:11919:26332:7786:23118:7797:29401:13259:22279:11931:15892:29376:18620:35795:16803:18619:25033:7823:7834:29351:35753:20466:35748:20482:11952:3637:29342:3639:20487:35642:7892:11961:23123:3646:11962:7903:29334:14391:35600:18618:7914:13288:7918:25021:7920:3664:24322:35587:35585:7939:35576:29299:11983:35566:29281:20512:13298:29276:3695:3707:7951:7954:3718:35538:13305:13308:13314:35512:7977:22322:3735:7979:15432:7982:3740:14409:3743:26303:22330:17724:35475:20538:29204:29197:7994:20541:24307:16748:18828:8004:3767:20546:12044:8015:17885:35452:26285:35393:14413:16736:35391:23880:20567:24983:27782:3795:20573:29147:17726:20576:12068:24970:13348:8072:26281:13352:8079:35306:20589:8099:22361:17971:24959:16490:35239:8118:12087:24061:8122:24053:22368:8127:8128:3856:29128:16721:29120:23146:8143:35153:8158:3870:35115:15840:29097:29093:8163:20615:35104:26280:29085:3886:20621:23973:23555:8190:12141:35101:12143:20633:24928:3900:13377:22392:8220:20641:14431:18814:8239:20646:13381:22398:22399:29049:35019:20655:22405:13385:18810:3926:13388:16684:8281:8284:29030:8290:29023:20672:29014:12181:29011:8293:3945:20673:20675:12186:34985:24921:29001:20681:12201:8347:28996:34943:3970:20691:26208:23163:18797:12216:14444:26204:14445:28969:22433:12224:3996:3998:4000:34901:24918:4004:23165:26201:14450:34899:4011:28950:28921:18796:34887:8392:33467:25885:9258:18274:23945:33461:9272:27:16481:33442:25877:33:21125:36:9294:9298:33441:9302:33438:9305:9307:65:68:72:79:86:16474:89:16472:21136:102:33415:33410:33405:25867:33389:116:9365:120:9367:9369:123:125:33369:9372:33345:136:9375:23273:16461:144:148:9385:156:24185:165:167:33336:9398:21159:33327:13680:25850:9410:25849:9416:9418:221:16449:9423:9428:33306:9430:13684:9436:255:33280:33275:33270:268:21181:33263:33260:25846:9455:21186:33255:9462:21191:9469:33226:16440:9473:16439:13701:309:312:33201:9483:33187:33183:9488:340:33142:9498:33139:9502:16429:25838:9511:359:33138:25828:21225:385:18146:21229:396:33129:21231:21232:9547:9548:33124:25823:9563:13712:420:425:427:9567:33052:33049:9575:440:9578:9579:447:9582:18014:25794:33042:33025:9608:9616:21259:24180:496:32980:9639:32970:32949:518:9653:16399:25792:531:32945:9665:32941:16393:544:545:9674:9678:25789:23919:9687:9693:13733:32913:32908:581:23303:14936:24165:9715:9717:21293:9726:32880:9730:9735:619:621:32844:9745:25752:21306:24164:32830:15233:652:653:656:657:25750:16365:21317:16364:683:21320:691:18284:698:32805:32789:9793:9801:9802:16354:32770:16353:724:25744:32766:32762:741:32761:16348:32752:13776:755:32728:9828:21352:9831:32727:32712:9843:32701:9848:790:32693:21361:21362:9861:21363:817:9864:18736:823:9871:23323:21368:836:32674:21371:851:860:865:32655:9906:874:9910:32616:9913:9915:9917:9918:32604:32589:9936:32582:23326:930:9947:25727:32573:9955:945:32514:32513:958:959:9964:963:21397:32508:969:21401:9983:32491:979:991:32489:21410:16335:16334:21413:21415:21417:13850:10032:13853:1035:32462:1046:1048:15375:10045:10049:32447:1062:32444:10067:18288:1077:18144:21438:32426:21445:10083:32398:16329:32393:24145:32378:21456:10099:25669:1129:13868:1132:32376:32367:10114:10119:10120:1156:1158:1161:10124:1169:32357:10140:10141:1193:1194:1201:1207:18715:32331:32327:1225:10161:32296:18712:18291:32282:13898:1247:10177:24142:1256:13903:1261:16299:10190:10193:18708:25667:32211:10205:16295:32178:1289:13920:32160:21504:10221:32149:13928:32133:1319:16285:1325:32116:1331:10235:10241:21524:32090:32075:21529:10252:15370:32068:32053:17770:1393:32033:23355:32007:32003:13947:18699:31989:15236:31980:1439:21556:1444:1445:24129:10312:1464:1471:21563:1476:13948:10317:16261:13949:10323:17922:10325:31961:31957:1507:1510:31956:1514:10349:31948:31946:24118:31939:25544:21587:10368:10369:10370:31900:21591:21592:24115:31861:10387:25538:31859:10393:31853:21602:1589:10408:31836:10419:25527:10425:25518:1623:1625:10430:31816:10437:23383:10441:1647:31813:31808:31792:1661:31784:10451:21621:1676:10469:25489:1689:31751:10474:1695:31746:1705:25479:10484:24112:10486:31737:21641:21643:1733:35655:21645:23397:31664:1741:21652:16227:1760:17777:1767:10523:1771:31583:1776:10528:25449:1788:31565:10547:16218:31534:10566:1811:1812:10568:14014:14016:1821:16212:1824:23403:1827:21687:31491:1838:10591:31472:25424:18402:16202:10607:21705:31406:18687:1887:21711:21712:1896:21714:21715:10641:31391:14026:10649:1921:1925:21722:31347:31341:10667:1956:31333:14034:10685:1976:31323:1981:1983:10692:31322:25416:31321:1996:31319:1998:2000:2001:31315:21746:31314:31312:10721:25413:31308:10731:14036:10746:10748:2041:2043:10758:2055:17791:25394:10777:16140:23422:10810:31242:10815:14044:10825:2100:10827:31223:16127:14047:31215:10842:10843:2128:31206:10847:2133:31178:2148:2150:10865:21794:21795:2160:31168:17989:31163:2173:2174:2178:2182:31155:31153:31133:31127:10904:16115:10910:31111:2214:31098:10924:31048:2220:31033:10930:2226:14089:14090:2241:10943:31020:2251:2257:17798:17986:14099:15024:30987:2276:21832:2281:21833:2285:2291:25360:14100:2298:15037:30974:21846:30912:11003:2332:25315:11011:11026:30877:21856:11031:2357:11037:11044:23436:25314:30866:2374:2384:2386:30847:15353:11063:11076:30782:2417:16100:25308:30776:30772:14140:21885:11110:30726:21890:30714:25304:11130:2463:23811:2466:18664:15344:16084:11140:30696:30686:2488:11145:16081:30680:30676:11159:2503:25301:11169:2514:16077:11184:2533:2535:2536:30675:30663:24081:30658:24077:2552:16069:2562:15042:11203:11211:2585:2586:16064:2592:11215:25276:30611:21934:21936:2617:30571:2620:2622:2624:23460:11234:16054:30552:18659:25274:16047:30543:2659:15048:21962:2684:25255:30497:2694:18656:30459:21974:16030:21977:30450:2724:30432:11300:2739:14190:18652:30418:2754:30417:30413:11320:15053:11327:11328:30411:14202:30390:2777:2778:25220:22005:30386:11350:17874:11355:2803:2804:30381:11360:30377:2819:30331:30313:17815:2831:11375:11377:25181:2855:22024:16001:30273:2872:30262:30231:30224:11395:17816:11399:2891:17818:11404:30212:30204:30187:30183:30182:2931:30129:11437:11438:14231:30099:2948:30084:15978:30069:30063:11465:22066:30062:11471:2968:25169:30038:11486:22075:30021:14248:2993:30008:11494:2999:3002:30007:11498:3009:22083:29990:3015:11506:3019:29984:11512:3029:29947:3039:25167:3045:11526:29944:29936:15965:3058:23479:11542:29935:11547:22113:11553:22114:3078:3079:3082:29921:25166:29918:22119:3091:3093:11573:25149:29914:3109:29912:3116:22129:25127:14268:15954:14270:14271:3142:11612:3160:3168:15951:11621:3176:29858:3179:29853:11632:11633:29838:11639:11645:3211:3213:29827:22158:29825:11656:3226:25118:3235:29808:11662:11663:29807:29801:15087:29794:11680:3260:24063:3263:11690:29792:23816:11698:29786:29780:3283:29756:14301:25084:29740:17824:3300:15934:3302:3303:11719:11720:3307:3312:15933:3316:29736:3323:11734:3325:29732:29729:11740:22190:18629:22195:29692:15928:29687:3354:29659:29652:3360:3361:3369:3371:29643:11781:3379:3383:11787:3391:3396:11795:22212:22216:14316:23864:29605:29581:3433:3437:22229:29580:3453:14336:11828:29511:29502:3475:29498:3479:11844:15910:29484:23514:29482:11854:3506:22246:29473:3525:14372:25057:3532:29451:3549:11882:15905:11886:29445:29426:22260:11896:3563:3572:15089:11910:3579:11911:25048:22270:3588:11916:15897:22272:3607:15893:29402:29385:29370:14390:29356:3629:11945:29349:15097:29343:22297:3641:18325:3644:11964:3652:3656:3657:29318:11975:22305:3666:29317:3668:29305:29287:15103:23526:3709:29266:11992:15872:14400:29220:29216:22321:25003:24995:29214:23532:17882:15859:12018:29195:29189:18612:22341:15855:12041:29176:3772:3779:29175:18450:29157:29155:15851:22353:3794:3796:29144:3804:22358:12071:29143:29140:3818:3820:3821:12075:12083:14420:12085:3839:29133:12097:29122:29115:29102:3867:12107:12109:29091:24931:29088:23554:12131:3889:15839:12142:15838:14426:12152:29069:3909:15837:3913:29058:29046:29041:22406:24927:3929:3930:29032:3932:15834:15832:3944:29009:3947:29006:22421:22422:24919:28988:15824:28979:22429:3985:4002:4006:12227:14454:28887:22443:12243:18597:4025:15264:12251:22448:15820:14466:28826:15817:28817:4050:24050:28810:22460:22463:4080:24915:4090:18392:12305:15813:28782:28779:4111:28772:12320:28752:4117:22480:4121:4126:12334:4136:22483:4142:22484:12341:24041:28733:4159:28700:15248:12371:24880:28639:22502:28632:4192:4193:28622:12402:14495:22511:14498:4232:4235:22514:24858:4242:4244:4245:28581:12431:22521:4253:12441:12450:28559:28546:12455:12459:28544:15795:12464:12465:22534:4307:28534:17956:15124:12474:23588:12477:28530:4322:4327:22548:4333:22552:28491:22554:12493:28471:12498:4350:22557:22558:28470:12506:15783:4367:22563:12517:12520:4380:22567:28421:4388:4392:28416:14512:24021:12540:15126:28408:4411:12545:28378:22582:28375:22585:4423:4424:12558:28367:12563:15777:4430:28360:4434:28357:24793:12599:28332:18439:4453:12615:28310:24754:28295:12629:28294:28293:28261:24748:4482:15127:12642:22618:4490:12657:17611:28260:22624:28250:28249:28241:22633:28235:28222:4553:24709:4558:28220:28215:4564:18976:18979:28212:4585:17584:4594:28188:28170:28164:15750:28152:15747:15746:18159:18572:17574:28137:28136:14542:4626:28134:28128:23621:24694:4640:23830:28123:28113:22679:19027:14545:4679:28099:28093:19039:4688:18552:6628:17107:12974:37326:17346:6637:37322:6639:12980:37298:6648:26903:39004:23002:5490:37297:19929:12987:14618:37259:37254:18215:17094:17091:5039:6674:6675:6676:6677:19121:26890:19431:17089:6685:18438:5047:19943:37250:15570:27301:14677:26887:17085:27897:14629:15690:5055:37184:5056:17076:6711:19957:26848:13003:14754:37171:19966:14559:19967:37155:27279:6727:37144:15153:24533:18183:28005:26782:26781:17933:6738:37132:13007:6741:6742:26779:37107:24675:27467:15285:6758:14682:27465:19226:15721:19988:13017:6776:6777:23015:27869:38923:6791:37096:22827:19998:5563:5564:19459:17948:5089:12789:38890:5575:5576:13018:19231:37078:5094:6821:6822:38861:37055:18540:20012:23020:19062:27460:26735:20019:19235:6839:38834:20022:20023:38833:27868:13031:5596:26733:17492:5600:6867:13033:24433:14774:38803:13038:36963:17322:5108:24610:36938:26716:38801:24431:22696:38774:6898:19240:26706:23708:15462:5614:6908:24594:5616:19078:13045:6921:5623:23647:5630:20063:36894:38752:36888:17035:27823:36880:24586:15459:18546:6960:6961:28001:38750:13050:38744:27999:36829:36825:5641:20084:36816:26690:24003:27795:15682:18545:5649:4788:6982:38713:27432:6987:36789:17017:36786:36780:13060:5659:20100:5660:24677:18874:24509:13071:5665:4899:15173:20112:23872:38687:27774:22848:16999:17300:7027:7028:7030:13077:36727:7033:13078:7043:36722:13081:16996:36716:15676:12823:7057:22850:5154:16988:7067:27238:22769:38652:7080:17647:27407:7086:26658:7088:13084:27399:36671:36668:19148:20146:38640:17288:20148:20149:36666:7114:16981:17284:24427:16979:5704:19518:19262:19521:22855:7124:5711:5168:7129:7130:36657:36644:38637:24567:5174:16971:7144:24500:7146:19528:36614:14789:5177:38618:27233:38611:24497:7167:36577:36576:19149:19535:4912:17278:38606:26653:5181:13113:18516:27395:36521:5749:4914:36511:36508:23713:19539:36489:5752:7214:7217:20199:18865:38600:7226:13123:7228:7234:12659:36466:5757:17840:36457:13134:5189:18087:7261:7264:12831:36447:36442:27219:7271:17523:7273:23060:26577:13135:5194:7286:12838:36431:36426:16920:23062:5781:19548:7304:26554:14565:27751:17266:14814:39568:4922:27379:18917:16913:7329:36371:36347:5203:14695:20249:26520:20251:5803:36306:27722:7350:26519:4734:38488:36296:36288:23070:39562:20261:36285:36281:19562:7377:19563:36279:38460:23983:7386:20270:36269:20272:20273:7395:26495:38452:26491:38447:39561:5822:22865:16902:36256:5216:36246:22725:17930:4928:26482:5829:7437:36239:23077:5220:36234:20299:36231:7460:36228:36221:7466:36218:19570:16890:13173:18176:39551:16888:19290:5226:13178:19575:17246:7491:14703:20317:20318:38425:7507:38423:16879:38420:36146:23085:27970:7518:27179:16873:36131:36122:36121:20336:38378:36116:36114:5228:13189:14656:4710:36110:38369:5865:36106:38342:26467:12863:13198:17518:22931:38327:20353:17714:7587:7588:36071:7591:12669:27363:12680:19595:20361:36051:7602:36045:20364:20365:18850:19093:19596:36039:19598:7621:36038:17543:27694:36024:18849:7630:17236:15148:5907:13219:26446:12693:12866:39522:35981:5250:35975:17446:22936:17443:23723:35951:24345:5927:35949:35948:26428:24328:38308:7673:15293:7676:7678:7681:5929:16850:35943:5254:26423:7689:20407:7695:26414:7702:35921:7707:35920:17229:17664:39517:35915:16845:7722:14660:5258:17669:5259:7731:17435:20418:35891:35887:38274:39507:7740:35886:38222:27155:27693:35879:38207:7756:26395:17676:5967:7762:19636:7768:38199:5971:5973:18904:27954:27951:5980:26345:5981:38179:24468:12709:27150:35846:39469:7791:35842:35840:17514:26327:7799:35814:35800:35798:18432:4946:7810:23120:27938:7818:20457:35789:5994:7824:35788:7829:13267:35765:39463:12875:7839:7840:13271:20464:7845:23121:28074:6000:18038:35743:35737:35696:20473:35684:16792:23733:35683:7877:35670:17895:35656:35654:27091:38146:35632:22734:35629:17424:35627:26320:35603:38128:17721:7905:20497:23692:23125:5291:6014:17219:15713:16772:38119:17420:38118:7932:26318:17617:5296:17929:39453:7944:35562:17558:20513:13297:7949:4821:28051:23842:20519:39420:35539:14601:7963:7964:7965:39403:6042:7971:6043:20526:16749:7975:19671:6045:6046:38072:38071:20530:19174:13319:39363:15202:19676:17414:17413:20539:38055:38054:39361:8001:39359:35462:19337:27073:16747:35459:20549:26294:8013:38046:38044:35444:35439:18825:35417:24298:35409:35398:38040:6075:17409:6081:35383:14662:19693:35372:35368:14850:35351:18900:8058:6090:27921:35327:24544:8066:8069:18819:6096:5324:4967:39346:4969:8080:16727:17399:35299:35293:35282:6111:6114:8102:8104:27335:20592:35272:8110:14724:35193:18898:8119:35172:35171:39344:8123:8124:17729:6122:6123:35164:38013:5339:8135:35163:39331:6131:8145:35151:35150:13369:24294:35125:6132:35117:6133:39325:12888:16716:37990:22964:35103:37987:37963:35102:8187:6144:39315:26279:13373:26251:35092:20632:28045:6151:35076:35070:8218:6152:8222:8224:23154:16708:37947:6155:19354:35056:26244:17395:13378:4974:35035:8248:8250:16706:35025:37938:37937:19723:18095:18034:37924:8266:13387:20662:23969:8275:27058:37923:18806:6175:18053:24292:8286:34993:20671:6179:39298:6184:27049:8304:8308:8313:34991:8315:39297:8322:37911:8325:15429:8329:34979:20679:34968:37907:18802:8342:26230:26222:17204:20685:34951:17735:8356:34947:37899:27042:34920:34918:8368:34908:5357:12893:6200:20699:17392:37866:4827:17683:12729:4744:27031:19746:34879:5366:34876:6218:13404:8398:19748:19749:37822:27628:34840:26198:34825:34823:39249:34817:13413:19185:14603:19754:8423:6236:37813:8426:20730:18245:13416:34804:20735:23171:12741:16649:6240:37803:8445:39232:8456:6249:22971:20746:8462:16648:34768:8468:8469:14667:13425:8472:19371:37799:14886:24543:34748:6269:20760:37786:34744:8490:34718:39227:15522:34716:39217:18247:17183:27003:6283:8519:16631:6284:19771:12905:37776:37772:19375:23693:8536:26151:24463:8540:20783:37770:26150:27914:23749:17376:19189:6306:37757:34682:22794:34675:37752:34637:20797:17164:6316:8575:6317:26991:13438:34628:16621:8586:20809:8588:19787:27593:8592:15696:20811:39186:8603:20815:16618:19791:8614:17160:18939:26130:34603:13452:34597:37740:28026:19387:27570:6342:6343:34558:34555:34527:6344:34525:12911:22702:19389:16608:20839:13482:19800:8651:15517:6357:34479:34452:14893:8660:37723:20847:34450:17364:6364:34447:16600:23197:13493:20857:37721:8682:20859:39164:20861:8693:19199:5405:23198:27567:27330:26108:34405:5409:6381:22802:37680:18784:23954:27554:20872:34357:13506:8724:16595:39149:13507:8731:5417:37679:5006:19056:6406:20882:34343:19816:8747:19817:6410:13511:20891:34246:34237:27320:34236:26107:13532:37653:5423:8767:19821:26105:24450:34190:34184:18207:8776:5426:6424:20906:20908:20909:15179:19826:34170:8791:27534:6437:17136:34167:8798:26061:5429:18774:8802:23213:34147:14909:13551:37629:26035:26023:5430:26007:6453:34131:8822:26957:37609:20934:18892:34116:8840:5433:19836:8849:13561:24616:8852:16570:20943:4714:8858:39124:12944:37559:6474:37555:8867:18209:24230:18553:13572:13583:25957:39119:24205:26953:34068:27911:8890:37552:19848:37539:34052:20962:12948:19403:19853:8917:39111:8919:25936:28060:39091:23240:23244:8931:33992:22885:8937:19856:5024:33985:17355:8944:8946:33978:33972:33969:5454:37484:8959:33967:33957:33947:20985:6510:26941:33932:26921:33911:20991:33905:39083:20993:37466:18019:18490:25922:33899:19411:9005:9007:33890:6523:33887:33884:9017:33878:13601:12958:9025:9030:19865:33863:6528:6530:6531:39065:9041:22993:33843:37449:19869:21022:37436:15502:26920:33813:9056:33787:16545:19875:39056:27317:21030:25914:17755:9074:33741:9076:37420:33730:19879:33712:33707:19881:39035:6558:9093:13628:9095:9097:6559:6560:33661:6561:9107:33643:26919:33632:16530:14746:17350:5465:27313:37416:37415:9137:19420:33623:18886:15644:19896:33607:33596:18885:9150:24192:9155:6594:19898:21074:39033:6597:21077:19900:6601:19902:16520:33573:33559:17109:9193:19905:37390:18380:9206:6613:33543:33539:27308:37371:18753:6621:16510:18016:37367:13658:15495:4847:16505:21105:33488:27903:9241:24189:9245:16497:9247:9248:33476:17037:9304:5:28755:28761:14:28763:18:14476:28778:28804:28811:28812:14468:28820:28831:40:28833:28837:28838:9361:54:28843:63:9374:28850:28868:82:28869:28883:88:14460:14459:9395:9397:9400:105:28905:28910:9405:28911:28914:28932:28934:14457:9419:14456:9424:14455:9432:28946:140:14448:28972:150:154:28977:28978:9444:14438:28989:176:178:29005:14437:14436:29038:14432:199:29050:206:29053:29055:217:29061:9475:9476:14430:29080:29092:29100:29103:246:29112:18605:29136:257:29142:266:14419:18608:14418:29177:276:9509:29192:29209:29211:284:9525:287:288:29218:29221:29222:29240:9541:29242:307:9552:320:29262:14398:9561:29288:9565:9566:336:29323:29333:29337:9583:29344:29348:29371:354:29390:29391:9604:9605:14388:29423:29428:29429:371:9618:14379:387:9625:29436:9635:29466:29479:9647:29486:29487:409:412:413:29495:14359:418:29508:9664:430:17828:14351:9673:438:441:14346:9681:14334:453:14332:461:29615:465:29630:29685:470:29689:29693:29720:29727:29733:29741:29742:9719:9722:492:9724:14308:29763:511:512:29765:9738:29768:522:9743:527:29774:29783:536:17822:29798:29822:29848:17821:9760:29852:552:29854:556:29865:560:14277:562:29873:9777:571:18140:29890:577:578:9782:584:588:29893:594:14272:602:29908:14267:607:9800:9805:612:613:614:615:624:14264:635:9807:639:640:9808:645:29922:9811:9812:650:14263:29945:14259:29987:30000:30010:30028:30033:9826:30061:30082:9832:30092:9834:30093:699:9846:30100:14228:706:30113:30116:712:713:14226:720:723:14225:30147:734:18643:30179:30184:9880:14222:30210:9892:752:30230:756:9900:30237:9912:30247:765:14215:9923:30255:30269:779:9933:30277:9944:30279:795:798:9948:30284:30302:809:30311:818:30312:30324:30325:828:30330:30341:838:30355:9980:9981:17813:30362:30374:870:14193:30406:10009:879:30442:30447:30448:17811:30458:10027:899:30470:30471:30478:10033:30489:30498:30507:921:30524:10041:935:10047:30536:941:30541:30559:30569:30570:30574:30613:30615:965:970:972:973:14165:30624:30629:30635:14161:994:995:997:10091:999:10092:30670:30684:14144:30688:30697:30723:1019:30732:30736:10112:30759:30780:1031:30785:30786:30789:30792:30806:14135:30815:30831:30842:17803:30855:14123:30870:1078:30876:30886:5142:30904:30905:10178:14111:10186:1105:10188:1107:30929:30931:10197:10198:30938:30955:18673:10209:14103:30977:1144:30980:30981:30993:31002:14092:10222:31022:31029:31043:31047:31053:1173:18677:1178:10232:1181:1186:10233:14070:1208:10239:31085:31110:31115:31131:31132:14058:31156:31164:10251:14055:31166:14054:1241:31203:14051:31226:31227:10271:31265:1259:31271:1266:31283:10285:31286:10289:14040:10297:31292:1279:1281:31311:10304:31316:31332:31348:31357:1296:31361:1300:31366:10320:31368:14029:31386:1316:31395:1321:31397:31398:10339:31411:1337:31420:10350:31427:31434:31435:10359:31440:10366:1371:31445:31446:10380:10382:14019:1383:31451:31466:1395:31474:31477:31481:1403:31489:31496:1412:10414:31507:31513:31531:10424:1433:31535:31538:31581:31599:14001:10445:1472:31637:18694:1482:31686:31694:31706:10455:1495:13990:1502:1503:31740:1506:10468:10470:1516:31748:31752:31753:1535:31786:31801:31811:1550:1551:1553:13966:10485:1562:31869:1564:31875:31918:10494:1572:1573:1575:1576:31920:31922:31926:1586:1588:17772:1592:1595:10501:10503:1601:31947:31950:1608:31969:31972:1626:32022:1633:32023:13943:32029:1640:10519:1652:18700:1656:1658:13942:32048:32056:32062:1666:1670:17769:1677:1678:10539:18704:32081:10546:32084:32088:10555:10556:32105:32108:32109:32120:10577:13929:32138:32139:10584:32141:32152:10592:32170:13919:1740:1743:1744:10598:1748:1750:1752:1753:32207:13918:32219:32228:32231:10612:10613:1770:13905:32235:1777:32269:32271:10622:1783:32276:32291:1792:32302:32306:13888:13885:32345:32370:32419:32420:32422:32432:1809:32433:18722:1820:17765:13857:1828:32446:1835:32454:17763:1844:10679:13851:1853:10691:1855:10693:32477:1865:1866:10696:10698:13847:10702:1877:10703:32486:18729:32505:32518:1892:32530:32542:10729:1900:32543:10739:1913:32551:32560:10759:32575:32581:32610:1929:32620:32628:32642:10784:13805:13803:10813:10818:13785:13780:32746:10831:10832:1964:32748:1968:32753:32765:32768:32772:1990:32775:1993:32783:1997:32795:2004:2006:10852:2008:10856:32811:2012:2013:32825:2018:10868:10875:2022:32832:18739:13755:2036:13744:13743:32865:32876:32886:32901:2058:2061:32912:2064:13735:13731:32924:2069:2071:10921:10925:2090:18740:32937:18741:32950:32960:32974:32991:33000:33001:18742:2118:2119:33021:17762:10967:33067:10973:33088:33108:33109:33122:10985:33136:33148:2154:33167:33172:2157:33174:33177:33188:2167:2171:2172:2175:2183:33192:11005:33198:2191:13702:33230:11027:13700:2208:33246:33257:33259:11046:11047:18749:11050:11053:33277:33281:13686:33294:33295:33307:33314:11088:33334:13676:33343:33356:33377:2263:33380:11109:2274:33391:33402:2292:33406:2295:33411:33454:2300:33477:11125:33478:13659:33501:33505:33523:33525:2323:33533:11143:33536:33546:33554:33555:11166:13649:13648:2349:33565:33568:33572:2358:33583:11197:33600:33601:11202:33604:33609:2376:33610:33626:2391:11209:11213:2402:13635:33669:33683:33685:2414:2416:33688:33691:33695:33701:33713:11230:2431:11231:2434:33728:11235:2441:2443:33729:33736:11239:11242:33742:33745:13622:33762:33774:13618:17754:33785:2469:33786:11263:13616:11272:2490:11276:33791:33800:13614:13611:13610:33823:33827:13605:33831:33859:9014:33875:33879:33901:33903:33908:11301:33920:11304:33940:33949:2570:33953:17753:11313:11316:2583:11319:34010:34016:2595:34020:34044:11336:2606:34063:13584:13568:34103:34144:34146:34158:34161:34163:34164:17747:34177:34179:2641:34187:13536:34198:2646:34199:34203:11380:2657:2658:34205:2664:34213:34215:2673:2677:11388:34225:34238:34241:34253:2691:34261:2705:13527:34268:17740:34285:2713:2719:2723:17739:34293:34316:13516:34326:34329:34334:11425:34358:2750:34390:2753:11433:34411:2759:34425:34426:34434:2765:34469:34476:34477:2775:11454:2780:34483:11460:34486:34500:34504:2792:2798:2800:11472:2807:11477:34519:11480:34549:34564:11488:2821:11489:34569:34592:11495:34593:2842:34601:34607:11505:34616:13434:34650:2867:11517:34657:34669:2878:2880:2882:34680:2885:34684:18792:34697:34705:34726:2902:34764:2909:34766:2913:13422:11558:34792:34798:34803:34810:11580:34820:2933:11582:2940:13408:13406:34852:2945:34892:2949:34897:13397:34915:11602:34917:13396:34975:13391:2961:11613:13389:34998:18808:35027:35041:2979:2981:17731:35083:2989:35093:35123:11636:35128:35132:35137:35140:35141:11652:35146:11657:11658:35147:3026:35184:3030:11666:35186:13359:35211:35221:35229:3053:11689:11694:35241:35245:11700:3070:13357:3073:13356:35265:11709:35267:35270:11713:13354:13353:11726:35290:35319:35328:35330:3114:18822:35347:35358:3121:11759:35367:11763:11768:3131:35373:11771:35412:11775:13330:35453:3165:11785:35466:3171:35470:13320:35498:35508:3186:11798:3191:35531:35540:13302:3205:11804:13301:35569:35577:35580:35601:3222:3224:3228:13287:3238:35624:11818:35636:3242:35643:35649:11835:35666:3255:35680:11845:35694:35701:35710:11857:3271:35712:35713:11867:35716:35717:17720:3289:3290:11877:13276:35730:35731:35735:35742:35770:35773:35781:3315:35818:35822:11913:35825:13253:13252:35851:35859:35868:11929:35872:35911:11934:3342:35925:11937:35931:11939:35944:17716:3356:3358:11944:3364:35977:35982:35985:35993:11956:3387:13215:3398:11967:36000:13214:36016:3411:36034:36049:11978:3419:11979:36089:36090:11987:36100:11989:3459:36101:36103:36127:36132:36151:36165:36175:36182:36185:3490:36187:36188:36190:3507:3508:36194:36254:36255:36282:36292:36299:36301:3545:3550:36325:36335:12035:36337:13154:3559:13150:3562:3566:36354:13148:12050:36368:36382:36386:36387:36392:12066:36409:12069:36424:18862:12074:36455:3611:36467:36497:12084:3616:36498:36513:36516:36532:36541:13107:3630:12101:36592:36598:36600:3636:12112:13095:12120:3643:12124:13094:13091:3651:36609:3659:36637:36642:36645:3667:3672:3678:36655:3688:3689:3691:36672:36690:36703:36707:3723:12159:3726:36728:3729:12161:36747:36751:36752:13069:12169:12170:13068:13062:36771:36782:3755:12178:36783:12180:36795:36799:3764:3768:36804:3778:13055:36817:36826:12206:18875:13051:36845:3792:3801:36846:12214:36875:36882:12220:36883:12223:12225:36920:12230:36927:36936:36937:36941:12244:36942:12247:13043:13039:3855:36951:13037:36990:3865:12261:36991:37009:12267:37010:3876:12273:37016:13027:37037:37040:37041:37043:3892:37062:13020:37069:3898:13008:37121:37122:37123:37128:3908:37143:12322:13006:37152:12330:37159:3921:3923:3924:37166:3931:37175:37187:37195:3936:3941:3942:3943:3946:3948:12348:12357:12361:37198:37210:37212:37219:37221:3971:12993:37257:3976:37258:3978:3987:37277:37281:3995:37294:37296:37309:37310:12979:4014:37328:37340:12973:12968:4024:37366:37372:12419:37383:37384:37389:12433:37438:37450:12451:37451:4058:12454:4071:4076:37461:37463:37469:37486:37487:4089:12955:37493:12954:4100:37516:4102:4103:12479:37520:37523:37558:37561:37568:4116:37584:37592:37604:37615:12494:37630:37647:4150:37650:4155:37703:37710:4160:37718:37745:37755:37767:4169:4170:12525:12902:37798:37805:37807:12536:12537:12899:37818:37836:37843:4204:37863:37898:4215:4216:12891:37932:12557:37948:4238:37959:37971:37986:37988:37998:38001:38017:4255:12609:12612:38029:38041:38068:4266:12622:38081:38088:12626:4284:38102:12631:4296:38104:38107:4306:12635:4309:4310:38122:12878:18901:38144:38148:38165:38170:4325:38171:38173:4335:38182:17678:38208:12871:17598:38231:4351:38245:38257:17593:4364:17592:38264:38270:4371:38279:4381:18983:4386:38283:38287:12867:38309:38310:38319:38322:4406:38326:38328:38335:12862:4417:38352:4419:38361:38365:38379:38381:4428:17576:38392:38402:38411:38430:38433:4442:38437:4449:38443:19019:4456:38449:4459:4460:4463:38455:38466:38468:38469:19029:38472:4475:38477:19032:38490:38495:38496:19041:12846:4493:38503:4499:38506:38519:38539:19049:19053:38544:38550:38557:19061:17655:38575:4532:38596:38598:38610:38613:38617:17649:4555:38631:38672:19079:38677:17549:38739:38740:4578:4579:38797:4586:19089:38798:38813:19096:38819:38822:38823:38826:19104:38829:38831:38836:17538:38862:4610:4611:4613:38863:38870:38876:19122:38877:19124:4630:38900:4635:19130:38902:18929:38931:38968:38973:12777:4657:12771:38998:39000:18934:39040:39045:17527:17525:39046:4685:39055:4694:39058:39073:39080:12752:39125:4709:39128:39139:19163:18937:39157:19168:39172:12743:4726:4727:39194:19177:4736:4739:39207:18941:4742:19182:4758:39211:39245:4768:4773:19191:4784:4785:12733:4793:39258:19195:39259:12731:39266:39275:39285:19206:4812:17623:19208:39311:39319:4820:39336:39339:19213:39351:17508:39365:4839:17505:4846:39371:39377:12726:4856:39393:4862:19222:4867:39401:4872:39402:19228:39406:4885:17496:12720:12711:4891:17491:39434:39439:39450:39457:39460:39467:19249:39470:39472:39476:39500:4924:39509:19256:39546:39550:4937:4939:19259:4942:18952:39582:39586:39593:19265:19266:39601:17474:4961:17471:17470:19285:17458:18060:19296:4985:19304:4988:4989:4991:4994:19312:19316:19319:17416:17406:17402:5005:5008:5011:5015:19345:5020:17398:17380:17379:19393:5036:18059:19398:19402:5049:19408:5060:5063:17354:5072:5074:19418:5081:19422:19429:17344:19433:19434:17343:5098:19436:19443:18058:19450:5115:5117:17337:18187:19456:17331:5130:19473:17319:19480:5136:5139:19492:17305:17301:19501:19508:19526:19530:19532:19541:17275:17272:17265:19556:17257:19577:19583:19592:19600:5195:17234:17233:17232:17231:19630:5208:17224:19641:19643:19645:19647:19648:5227:5229:17221:17220:19655:19658:19683:17212:19685:5249:17211:18199:5256:5257:19712:19719:19725:18050:19737:19745:19759:17186:19769:17171:19778:18206:19789:19801:5294:19803:17143:19813:19818:5301:5303:19822:17138:18208:17134:19844:19846:17127:17124:17121:19871:19873:5323:5330:5331:17119:19883:19884:19911:17098:19927:5347:19938:19939:5353:17087:19949:19958:5363:18046:5369:17074:19973:19974:19975:5378:19978:17065:17060:20002:20004:20011:17058:20018:5391:5392:5393:20026:5395:5397:20032:17050:17045:20040:17044:18219:20048:5420:20049:5437:5438:20050:17038:20074:20086:17012:17010:20113:20129:20134:20135:20139:20152:16968:16966:16950:16949:5470:16945:16936:5483:16925:20213:16922:20221:20223:20231:20234:5501:20239:20241:20250:5508:5510:5512:20256:20259:20266:20269:5529:16905:20277:20293:18230:20297:5544:20310:16887:20314:20327:20340:16869:20347:16867:5571:20368:16858:20382:20391:5587:5589:20396:16852:20401:20403:16849:20408:16842:16833:5605:5606:16831:16829:20432:20436:16821:16820:16817:5635:20448:5639:16804:16796:20477:20491:20494:5653:20499:20502:16764:5663:18237:20517:20529:20532:20536:5676:20542:20550:16737:20559:20565:16731:16729:20602:20611:5705:20618:20623:5713:20628:16709:20638:5722:20645:5726:16689:20668:16682:20683:5745:20684:16674:5754:20697:20700:5769:20702:20704:20716:20720:20727:20737:5790:5791:20742:20750:20754:16641:20758:20765:20781:20784:20785:16624:20819:5817:20821:20826:20829:5828:20830:16604:5837:20850:16598:18026:20864:5845:5846:5847:20865:18024:20896:16585:20910:5861:20913:20914:16582:20917:20919:20921:20923:16581:16580:16578:16574:16573:5909:5910:5912:20933:5919:16571:20938:20944:5932:5934:16568:20953:16565:20955:20959:20963:5949:20965:20967:16558:5957:18261:20981:20998:20999:21016:16546:21031:16527:21055:21057:21059:16523:21068:21076:21089:18272:16489:16486:21124:21130:6010:16473:21142:16465:16462:6020:21150:6024:6025:21153:16456:6038:21166:21168:21184:16443:21219:21224:21237:6056:21240:6061:21242:16414:21260:16407:16396:21282:21283:6080:6085:16388:21290:18282:16383:6100:21294:6119:16380:6125:16375:21307:16373:6135:16370:6138:16357:6143:21336:16345:6157:6159:21367:21379:21386:6169:6171:6172:21388:21400:16332:6188:21427:16330:21452:21453:18290:21463:16308:6202:6204:21486:16296:6212:16294:16292:16282:21530:6222:21532:21533:6232:21540:21542:6242:6252:21552:21555:21558:21562:16258:6275:21579:21581:6282:16251:21586:16250:21598:16246:21606:21608:6297:21609:21611:21612:21615:6311:21623:18298:21634:6322:16234:6325:6326:21638:21646:16225:16223:6338:6345:18001:18301:6353:16221:6360:16208:21697:6374:16204:16192:21728:21735:21740:16161:21754:6401:21762:6409:16144:21771:6415:16133:16128:18309:21788:16119:21828:21836:17979:16110:21844:16107:21859:21860:6465:16104:21867:21868:6472:16097:16089:16088:21897:6478:21898:6481:6483:21900:21910:16070:6491:21918:21921:16063:6504:16056:21949:16040:16035:6518:21966:21990:16022:16013:22004:6536:22010:22023:22048:6541:6542:6543:6544:17978:22072:6553:22094:22105:22116:15963:15961:15959:22128:22130:15955:22134:6595:22154:15945:22161:6605:22167:22169:17976:22180:15929:6624:22201:22206:15920:15918:6631:22244:22252:22266:22268:22288:6650:15887:22304:15878:15875:15869:15864:22329:15860:22345:22347:6672:15849:15844:6681:22363:22365:6687:22367:6691:22381:22383:6698:22385:22389:22407:15830:22424:6712:6716:22434:22447:15816:22464:22465:22469:22470:22486:6730:6731:6734:22490:18340:15805:22503:6743:6745:6749:22507:22513:6760:6765:22517:15798:22528:22532:22539:6797:22541:22544:6805:22551:22576:22577:22595:22597:22598:15771:6828:6829:6830:22611:6832:18346:22616:6836:22620:6841:22623:22637:6856:18347:15757:6863:22643:6869:6871:22647:15749:6875:6876:22671:6878:22672:15736:15726:6891:15724:15719:6899:15709:15707:15693:6905:15689:15671:15668:22783:15657:22787:6932:22804:15646:15636:22835:15621:15617:15615:22841:6952:6958:15605:15602:15599:17937:15593:22870:15587:15584:15582:22880:15568:15566:22905:6983:22911:6990:6992:22913:15559:15555:15553:22922:22927:7007:15544:22942:22945:22946:7016:22951:7021:22955:22975:15520:15516:22983:15514:7044:15511:15470:15465:7056:15463:7060:17931:15455:15453:7076:23054:7085:23058:23072:15444:7093:23087:23094:15440:15438:23100:7111:23102:23122:23127:7118:23131:7120:7121:18373:23137:23139:23143:23147:23149:7143:23157:15430:23179:23184:23196:7160:15413:7168:23206:23220:15407:23224:18378:7188:23232:23236:23249:23256:23258:23261:7200:15404:17926:23276:23284:23291:7225:7227:7236:23295:23296:7255:23301:23302:15384:7266:23312:23313:15376:23336:15371:23356:7280:15367:23359:7290:23361:23364:15366:23377:23390:15357:7313:23409:7317:23411:7321:7322:23424:23449:15339:23455:7336:23474:23504:23505:23511:7345:23547:15326:23561:23564:23570:23572:23595:23617:23623:17919:23630:7378:23654:17915:23682:7390:15307:23704:23716:23736:18400:23742:23745:7410:17914:23763:23767:23770:23771:23773:23778:23779:23781:23798:23803:7446:23817:7451:7461:23822:17908:23844:23852:23858:23866:7480:3:15276:15274:7488:15272:23896:23901:23905:23927:23947:23948:15256:23958:23967:23971:7524:23976:23978:23989:24018:24024:24025:7536:24029:24032:24034:7544:24037:7549:15245:24047:17902:24064:15241:15240:7579:24104:7590:24135:24139:7595:24160:7601:24162:24168:7607:24171:7613:15227:7619:24191:7625:24201:24206:7631:15220:7635:24209:24211:7641:24227:24229:24245:7649:18419:15209:7652:24285:7656:24287:24302:7659:24306:24309:24311:7670:7674:7685:7686:24317:7691:24320:15192:24351:24353:18423:15185:24377:24392:24411:24414:15182:15181:15180:24438:7742:7744:15177:18425:24473:7754:15175:7761:24501:24512:24527:15164:15160:24593:24601:7781:7782:24602:15154:24613:24622:24625:17890:24634:24646:24650:24662:24678:24680:15137:24693:24706:15136:15135:7830:24724:15134:24739:24740:24741:7847:24742:7851:24770:24778:7855:24788:24805:7860:18441:24812:24846:24859:24860:24864:18447:15113:24896:24897:24904:24950:24956:7902:24967:7907:24971:24972:24980:24981:24982:25008:25009:7938:25010:7942:25017:25038:25046:25074:25078:25080:15088:25089:25090:7961:7967:7970:25113:7973:25128:7976:25134:15082:25154:25164:25180:7990:25205:25206:25208:7998:15059:8000:25212:25216:25218:8006:8009:15058:25231:25232:17871:25241:25252:25256:25262:25268:15045:25270:25280:25297:25302:25305:8041:8044:25310:25330:25333:8056:25348:25354:8061:15033:25381:25387:15020:8073:25401:25434:25440:15001:25445:8092:25447:8105:8107:25476:25481:25485:8120:25495:25522:25529:25540:25545:14987:25583:25590:17862:14981:8155:14972:25609:25663:25701:14945:8174:17861:25735:25755:25759:25763:14938:8199:25778:14935:8206:25798:14934:25808:25827:25831:8232:25840:25889:25890:25891:25893:25909:8244:8245:8246:25923:25943:8259:25946:25947:17855:25989:25990:25991:25996:26000:26003:8278:26018:8285:14914:26029:26037:14910:14904:26066:8323:14903:14902:26079:18494:18496:26114:26124:26126:26166:26174:18102:26185:26192:26210:8366:26216:14869:14866:26225:26227:8375:26235:26258:14852:18504:26277:26292:26293:8393:26299:8396:8397:26310:26333:26334:26335:26346:26350:26362:26364:8417:26380:26393:8420:26398:26409:14839:26430:8432:26439:26463:14830:26483:26489:14825:26506:14820:26521:18513:26537:8465:26538:26542:26543:26546:26553:8478:14809:26578:8483:14805:14804:26596:26617:8505:26619:26623:26628:26630:26639:26672:26684:26699:26704:8531:18520:26720:26742:26748:26768:26793:8561:8562:8563:14760:8567:26802:8571:26807:8574:26820:8577:14757:26829:8581:26831:26836:26841:26850:17848:14749:26892:14748:26897:26911:26914:8626:26917:14744:8631:26939:26952:26955:8636:26964:26972:14739:26976:26990:27000:27001:27025:27040:27048:8654:27050:14729:8662:14726:27077:27078:27080:14719:14718:27090:27099:27105:27109:8689:14715:27120:27122:27137:8704:27140:14700:8710:27191:17844:27196:27204:27205:8728:27211:27215:8738:27249:14678:8744:27285:8751:8752:27343:8755:14663:27400:27408:27416:14651:27457:27461:27477:27488:8779:8781:27492:14627:27520:8792:8794:27531:8799:27537:8801:8803:14612:27545:27557:27559:27568:14608:27572:27574:27576:27579:27581:27586:8829:8839:27598:27613:27630:27632:27639:27644:27656:27661:8865:27665:27688:14594:27699:27704:8878:8880:8881:27709:8883:8892:27733:27744:27753:8901:8907:8914:27755:27767:27773:27780:20572:8928:27791:27816:27818:8940:27824:8948:14583:27854:27863:8960:8961:8962:8964:27893:27902:27910:18566:27917:27928:27932:27939:27941:27963:27989:9001:9008:9009:27995:28025:28027:14558:14556:17838:28047:28048:28063:28070:28087:28094:18570:28114:28118:28146:9058:9062:9064:9067:28162:28185:28206:9078:28238:28267:9087:28271:28281:28284:28285:28297:28314:28322:14525:9109:9115:28355:28366:28388:28397:28405:9128:28412:9134:28415:28427:28440:28446:28455:28460:28464:28469:9157:28472:28474:9160:9162:14511:28531:28536:9184:28545:28551:9200:28557:28579:28580:28584:28594:9214:28595:28597:28601:28628:28633:18589:28648:28651:9237:28656:28662:14485:28678:28679:28680:28685:18593:28707:14480:9273:9274:28722:9280:28730:28750:9300 11:3:2:14:8:17:7:13:1:6:20:19:24:23:12:56:10:22:25:27:26:16:9:18:29:21:28:5:118:33:119:32:39:71:176:69:204:35:140:30:52:57:155:77:40:93:164:62:74:88:54:64:51:166:91:4:73:36:58:138:97:149:46:198:72:86:94:43:194:189:59:191:68:177:15:65:67:165:75:108:96:109:98:145:100:101:132:92:44:202:116:50:107:111:114:82:143:153:171:81:49:95:123 1:2:288:0:37:10:27:4:41:43:22:32:25:52:61:12:289:15:47:96:166:80 19:13:17:18:22:8:10:6:25:9:15:20:16:14:3:36:40:1:12:34:23:27:155:28:32:51:11:30:26:46:31:35:48:39:2:4:45:33:42:41:55:0:24:7:47:43:62:53:5:37:76:21:67:63:38:29:61:74:59:49:50:90:91:70:86:60:73:81:71:54:89:69:95:99:57:135:77:52:93:79:66:102:118:64:87:68:125:78:56:115:65:131:80:83:97:44:124 64:31:67:36:76:42:142:22:13:46:35:38:69:51:135:28:126:32:12:26:33:23:104:18:125:141:145:85:52:124:132:151:60:112:99:66:49:1:30:58:122:57:108:103:6:41:63:84:79:118:137:15:102:93:94:24:70:62:105:48:59:146:81:139:50:75:89:115:123:16:107:25:152:17:19:7:83:143:109:149:140:127:11:61:4:37:80:92:114:129:47:100:73:71:45:55:88:40:101:77:82:2:121:9:39:44:20:53:21:128:133:34:65:120:136:10:86:14:131:5:110:144:27:97:98 none 2:1:0 5:0:1:6:2:3:4:7:8:10:9:11:20:12:13:14:15:17:18:19:16:21:54:46:51:55:38:39:43:45:56:53:37:40:42:41:44:48:49:50 