tree
version=v2
num_class=1
num_tree_per_iteration=1
label_index=0
max_feature_idx=8
objective=binary sigmoid:1
feature_names=ip app device os channel day hour minute second
feature_infos=[9:212773] [0:556] [0:3434] [0:607] [0:497] [6:7] [0:23] [0:59] [0:59]
tree_sizes=2615 2609 2615 2622 2625 2619 2620 2623 2623 2634 2630 2646 2648 2654 2640 2649 2646 2639 2649 2649

Tree=0
num_leaves=31
num_cat=0
split_feature=0 2 4 2 2 4 2 4 3 4 4 4 4 4 4 4 4 4 3 4 3 4 3 4 4 4 3 4 4 4
split_gain=1.68836e+06 848053 695524 341367 252848 251382 206799 193304 158924 97834.6 510516 383514 96117.6 163701 125319 98402.8 68180.1 203673 104017 98464.5 52312.2 47209.5 46156.8 57122.3 45475.3 65760.5 45196.9 44539.1 44069.8 42378.9
threshold=125728.00000000001 1.0000000180025095e-35 103.00000000000001 1.0000000180025095e-35 3.0000000000000004 20.000000000000004 3.0000000000000004 103.00000000000001 132.50000000000003 378.00000000000006 267.00000000000006 275.50000000000006 180.00000000000003 214.00000000000003 114.00000000000001 107.50000000000001 265.50000000000006 275.50000000000006 7.5000000000000009 244.50000000000003 132.50000000000003 212.50000000000003 27.500000000000004 348.00000000000006 337.50000000000006 348.00000000000006 40.500000000000007 204.00000000000003 20.000000000000004 372.00000000000006
decision_type=2 2 2 2 2 2 2 2 2 2 2 2 2 2 2 2 2 2 2 2 2 2 2 2 2 2 2 2 2 2
left_child=1 -1 5 -2 9 -3 7 28 -6 10 -4 -12 14 21 15 -9 19 -18 -19 -15 -8 27 23 -20 -13 -26 -24 -14 -5 -27
right_child=3 2 4 6 8 -7 20 12 -10 -11 11 24 13 16 -16 -17 17 18 22 -21 -22 -23 26 -25 25 29 -28 -29 -30 -31
leaf_value=0.092785223161556837 0.09830262212784055 -0.090024465586396374 -0.061425442577930305 -0.0079030444459108774 0.096132826305354122 0.096420454420851481 0.099077824952726587 -0.03401133021743899 -0.10000000000000001 -0.075628381267817027 0.099610111308660321 -0.051101185009722307 0.096817304552402644 0.031188377278149354 -0.03480274143422226 0.088002021425275218 0.095267290859979092 0.069044375212858486 0.024578176278569917 -0.055640040511160407 -0.10000000000000001 0.099338838819038988 0.058010629195594521 -0.044671025112976707 0.083294828079396838 -0.08939306126153683 -0.087472321553922816 -0.02074435362093896 0.097875037857795916 0.011312221329891837
leaf_count=19862 9868 81072 3206958 23721 3952 9368 3038 69202 53061 1200142 1411 282896 989 80925 452450 11358 8030 29523 61379 229685 13582 1736 27902 324311 6284 66494 23884 46250 4786 45881
internal_value=0 -0.599328 -0.779906 0.887187 -0.962306 1.36008 0.638473 0.475975 1.05417 -1.03867 -0.908177 0.376632 0.308547 0.532882 -0.222719 0.88301 0.259159 0.510262 0.0509635 -0.343955 1.86942 1.58758 -0.276104 -0.525187 -0.58232 0.0834571 0.689384 0.575412 1.74014 -0.589121
internal_count=6400000 4977381 4957519 1422619 4867079 90440 1412751 1396131 57013 4810066 3609924 402966 1367624 834614 533010 80560 785639 475029 466999 310610 16620 48975 437476 385690 401555 118659 51786 47239 28507 112375
shrinkage=0.05


Tree=1
num_leaves=31
num_cat=0
split_feature=1 0 4 1 4 3 4 1 1 1 1 4 4 3 3 4 1 3 3 1 1 1 1 1 3 1 1 4 1 4
split_gain=4.12054e+06 538577 233630 989678 177620 147556 113324 97913.7 276204 101077 83032.4 66803.5 377212 60707.2 63860.1 52235.3 47020.7 46858.2 63595.9 33655.1 31184 63396.9 36104.3 31470.3 28281.3 19454 18201.3 17657.3 17124.7 12769.4
threshold=18.500000000000004 125728.00000000001 192.50000000000003 28.500000000000004 452.50000000000006 6.5000000000000009 114.00000000000001 11.500000000000002 7.0000000000000009 9.5000000000000018 10.500000000000002 249.00000000000003 267.00000000000006 27.500000000000004 40.500000000000007 468.00000000000006 10.500000000000002 39.500000000000007 29.500000000000004 8.5000000000000018 11.500000000000002 7.0000000000000009 15.500000000000002 16.500000000000004 295.00000000000006 24.500000000000004 20.500000000000004 27.000000000000004 16.500000000000004 345.00000000000006
decision_type=2 2 2 2 2 2 2 2 2 2 2 2 2 2 2 2 2 2 2 2 2 2 2 2 2 2 2 2 2 2
left_child=1 7 3 26 11 28 10 8 -1 19 27 -4 25 20 17 -6 -11 18 -15 -10 21 -8 -22 -24 -14 -13 -2 -7 -3 -26
right_child=2 5 4 -5 15 6 13 -9 9 16 -12 12 24 14 -16 -17 -18 -19 -20 -21 22 -23 23 -25 29 -27 -28 -29 -30 -31
leaf_value=-0.083347864371945801 0.09356887431899287 0.057357793850938511 0.094221697846227956 0.0927191507598914 -0.071048366958334969 -0.029663767668636123 -0.052189481318647916 -0.083574378543361583 -0.009228448845045879 0.07313502579068637 -0.035114500045421014 -0.015419815835013777 0.090621561071400542 0.070734961984533939 -0.079467935129926434 0.05348340179033273 -0.0090578297944725449 0.090967239828390903 -0.075642276886987103 -0.048862117131134364 -0.071407627747024457 0.0046602777335219775 0.09633176887992434 -0.033855678052061126 0.088896492671321908 -0.068398312395166194 -0.075714589563872586 0.088570294172305011 -0.069844940391545415 -0.048356220948011563
leaf_count=1465958 69 65514 22837 17145 86496 8888 326290 2077788 181411 20483 66209 99682 39641 8311 53041 12858 76671 3727 52631 486124 356858 175529 63 67112 349 100590 495725 6317 9359 16324
internal_value=0 -0.99685 1.30122 0.640872 1.55902 -0.171729 -0.388951 -1.3578 -1.10968 -0.404058 0.79066 1.64336 1.35152 -0.594241 0.266226 -0.574582 0.656861 0.772303 -0.0652772 -0.711442 -0.771239 -0.518824 -1.14494 -0.188444 1.77031 -0.745485 -1.47557 1.59241 1.06261 -0.104916
internal_count=6400000 5508284 891716 512939 378777 1199849 1124976 4308435 2230647 764689 81414 279423 256586 1043562 117710 99354 97154 64669 60942 667535 925852 501819 424033 67175 56314 200272 495794 15205 74873 16673
shrinkage=0.05


Tree=2
num_leaves=31
num_cat=0
split_feature=0 2 4 2 4 2 2 4 3 4 4 4 4 4 4 4 4 4 3 4 3 4 4 3 4 3 4 4 4 4
split_gain=1.38638e+06 693775 569961 281866 207199 205751 170272 158915 132124 80599.9 418817 316333 79624.5 135453 104712 80373.9 56898.4 168835 86007.6 81345 44446.5 39742.2 38580.1 37567.1 47039.4 37455.4 37430.6 37345.2 36717.3 28415.5
threshold=125728.00000000001 1.0000000180025095e-35 103.00000000000001 1.0000000180025095e-35 20.000000000000004 3.0000000000000004 3.0000000000000004 103.00000000000001 132.50000000000003 378.00000000000006 267.00000000000006 275.50000000000006 180.00000000000003 214.00000000000003 114.00000000000001 112.00000000000001 265.50000000000006 275.50000000000006 7.5000000000000009 244.50000000000003 132.50000000000003 212.50000000000003 316.00000000000006 27.500000000000004 348.00000000000006 40.500000000000007 242.50000000000003 204.00000000000003 20.000000000000004 329.00000000000006
decision_type=2 2 2 2 2 2 2 2 2 2 2 2 2 2 2 2 2 2 2 2 2 2 2 2 2 2 2 2 2 2
left_child=1 -1 4 -2 -3 9 7 28 -7 10 -4 -12 14 21 15 -9 19 -18 -19 26 -8 27 -13 24 29 -25 -15 -14 -5 -20
right_child=3 2 5 6 -6 8 20 12 -10 -11 11 22 13 16 -16 -17 17 18 23 -21 -22 -23 -24 25 -26 -27 -28 -29 -30 -31
leaf_value=0.084292989173162011 0.089579528498394512 -0.082089936305110175 -0.055697862765582674 -0.0074237238819207553 0.087826646800996208 0.087485761925815586 0.090330204545455664 -0.019650984836314438 -0.092055890023908904 -0.068674900402903555 0.090958530723293587 -0.070495422392304469 0.088614656755080623 -0.0044641391979438885 -0.031780289090859677 0.08729528672261154 0.087141729515608279 0.063029679368505107 -0.018292426806376865 -0.050749742060365269 -0.0936237680435303 0.090879790440710984 -0.01224216889583115 0.052665402068757361 -0.040415398950935016 -0.080179111771504705 0.077148953503552831 -0.019323663329011503 0.089198105738028902 0.065500813534379448
leaf_count=19862 9868 81072 3206958 23721 9368 3952 3038 76329 53061 1200142 1411 133231 989 72302 452450 4231 8030 29523 49265 229685 13582 1736 268324 27902 324311 23884 8623 46250 4786 12114
internal_value=0 -0.544442 -0.707931 0.806367 1.23795 -0.87316 0.580188 0.432716 0.953864 -0.94208 -0.82343 0.343887 0.280895 0.485665 -0.203158 0.810791 0.236606 0.466617 0.0486745 -0.314885 1.70254 1.44908 -0.527368 -0.248951 -0.473687 0.62425 0.565215 0.519053 1.5839 0.449632
internal_count=6400000 4977381 4957519 1422619 90440 4867079 1412751 1396131 57013 4810066 3609924 402966 1367624 834614 533010 80560 785639 475029 466999 310610 16620 48975 401555 437476 385690 51786 80925 47239 28507 61379
shrinkage=0.05


Tree=3
num_leaves=31
num_cat=0
split_feature=0 2 4 2 4 2 2 4 3 4 4 4 4 4 4 4 4 4 3 4 3 4 4 4 4 4 4 3 4 3
split_gain=1.25933e+06 630953 517756 258666 188956 186671 156093 145234 120514 73693.9 379556 288475 72262.9 123719 94818.3 73900.7 51596.3 154216 77997.8 73651.4 40558.1 36597.1 35361 53158.4 35210.7 34071.4 34027.1 34003.9 42552.1 33989.3
threshold=125728.00000000001 1.0000000180025095e-35 103.00000000000001 1.0000000180025095e-35 20.000000000000004 3.0000000000000004 3.0000000000000004 103.00000000000001 132.50000000000003 378.00000000000006 267.00000000000006 275.50000000000006 180.00000000000003 214.00000000000003 114.00000000000001 107.50000000000001 265.50000000000006 275.50000000000006 7.5000000000000009 244.50000000000003 132.50000000000003 212.50000000000003 337.50000000000006 348.00000000000006 372.00000000000006 204.00000000000003 242.50000000000003 27.500000000000004 348.00000000000006 40.500000000000007
decision_type=2 2 2 2 2 2 2 2 2 2 2 2 2 2 2 2 2 2 2 2 2 2 2 2 2 2 2 2 2 2
left_child=1 -1 4 -2 -3 9 7 -5 -7 10 -4 -12 14 21 15 -9 19 -18 -19 26 -8 25 -13 -24 -25 -14 -15 28 -20 -29
right_child=3 2 5 6 -6 8 20 12 -10 -11 11 22 13 16 -16 -17 17 18 27 -21 -22 -23 23 24 -26 -27 -28 29 -30 -31
leaf_value=0.080863221026775012 0.086023337492874552 -0.078681952608032193 -0.053134904748698211 0.075961187371261646 0.084306040239232938 0.08397922038990828 0.086756536334940779 -0.028944410031401649 -0.088358113641570188 -0.06565766516030927 0.087359090606595774 -0.04454134670797847 0.085038302351552061 -0.0042406529298122326 -0.03022925504956521 0.077176586663877736 0.083600478806080847 0.060181829585390048 0.02140151875940256 -0.048370480026725532 -0.089725916342509149 0.087265507255509425 0.075723809290571209 -0.080891104211357145 0.011165302562852848 -0.018364472846029333 0.073699093178069539 0.050217721272618011 -0.038479824781030382 -0.076785512518096302
leaf_count=19862 9868 81072 3206958 28507 9368 3952 3038 69202 53061 1200142 1411 282896 989 72302 452450 11358 8030 29523 61379 229685 13582 1736 6284 66494 45881 46250 8623 27902 324311 23884
internal_value=0 -0.520121 -0.676135 0.771237 1.18807 -0.833633 0.554409 0.413226 0.915616 -0.899262 -0.785654 0.328452 0.268103 0.463842 -0.193431 0.774673 0.225771 0.445458 0.0464041 -0.299965 1.63509 1.38905 -0.501847 0.0866141 -0.518963 0.495414 0.538176 -0.237114 -0.450964 0.595619
internal_count=6400000 4977381 4957519 1422619 90440 4867079 1412751 1396131 57013 4810066 3609924 402966 1367624 834614 533010 80560 785639 475029 466999 310610 16620 48975 401555 118659 112375 47239 80925 437476 385690 51786
shrinkage=0.05


Tree=4
num_leaves=31
num_cat=0
split_feature=1 0 1 1 3 1 1 1 1 1 1 3 1 2 1 3 1 1 1 1 1 2 1 3 1 3 3 3 1 1
split_gain=3.18309e+06 410485 187462 1.02428e+06 118313 89358.2 89154.2 249336 87419.5 69570.1 52359 64489.9 40444.4 35199 30984.2 30058.5 25451 28477.7 23785 140143 26143.1 18737.7 18117.1 40903.8 27460.5 21042.7 16817.6 24549.7 14851.3 14365.2
threshold=18.500000000000004 125728.00000000001 28.500000000000004 19.500000000000004 6.5000000000000009 20.500000000000004 11.500000000000002 7.0000000000000009 9.5000000000000018 11.500000000000002 4.5000000000000009 27.500000000000004 10.500000000000002 2033.0000000000002 8.5000000000000018 40.500000000000007 5.5000000000000009 9.5000000000000018 52.500000000000007 64.500000000000014 63.000000000000007 1.5000000000000002 15.500000000000002 27.500000000000004 16.500000000000004 40.500000000000007 39.500000000000007 29.500000000000004 10.500000000000002 16.500000000000004
decision_type=2 2 2 2 2 2 2 2 2 2 2 2 2 2 2 2 2 2 2 2 2 2 2 2 2 2 2 2 2 2
left_child=1 6 3 -2 29 21 7 -1 14 10 11 -6 -10 18 -9 -13 -12 -18 -4 20 -20 -5 23 -11 -24 26 27 -25 -19 -3
right_child=2 4 13 5 9 -7 -8 8 12 22 16 15 -14 -15 -16 -17 17 28 19 -21 -22 -23 24 25 -26 -27 -28 -29 -30 -31
leaf_value=-0.07468502547000426 0.082657563197304273 0.051662074367153844 0.084416275433323293 0.017021218271906551 -0.042680027165848559 -0.066863776243520329 -0.074931946322026363 -0.0033692255561293253 0.072426734509359894 -0.064783878030003461 0.079891945313178017 0.055217529598674243 -0.0039608356040130993 -0.052608661309028575 -0.041558303516089481 -0.07328150300121325 -0.0018892970449103251 0.075710550569631802 0.066213606903817265 0.079795012765192505 -0.062401619269710898 -0.077958567768421846 0.085945226239665426 0.065287385406890427 -0.029393310602617313 -0.080045536480635726 0.084001799787291498 -0.08214865168648626 0.0017445724615033937 -0.065174017000108081
leaf_count=1465958 22708 65514 27186 89964 317293 597195 2077788 181411 20483 373583 2258 23146 76671 17179 486124 19757 192854 5564 2087 31726 81819 21852 66 3316 123034 21461 1462 21504 19678 9359
internal_value=0 -0.878493 1.16111 0.788392 -0.1558 -0.973963 -1.19661 -0.958513 -0.286492 -0.350934 -0.0385724 -0.466795 0.701525 1.53674 -0.574381 0.710107 0.396312 0.244461 1.55712 1.28315 -0.808206 0.137784 -0.830739 -1.02577 -0.323226 0.120349 0.605405 -0.190505 1.05918 0.955233
internal_count=6400000 5508284 891716 731719 1199849 709011 4308435 2230647 764689 1124976 580550 360196 97154 159997 667535 42903 220354 218096 142818 115632 83906 111816 544426 421326 123100 47743 26282 24820 25242 74873
shrinkage=0.05


Tree=5
num_leaves=31
num_cat=0
split_feature=1 0 1 1 3 1 1 1 1 1 1 3 1 2 1 3 1 1 1 1 1 2 1 3 1 3 3 3 1 3
split_gain=2.90637e+06 375810 171965 939747 107297 82647 229686 81734.9 79099.3 63271 47432 58390.8 36534.5 32280.4 28219 27284.1 23440.8 25972.8 22127.9 128300 23824.3 17019.6 16559.2 37150 25056.8 19184.2 15334.2 22278 13697.5 13504.8
threshold=18.500000000000004 125728.00000000001 28.500000000000004 19.500000000000004 6.5000000000000009 11.500000000000002 7.0000000000000009 20.500000000000004 9.5000000000000018 11.500000000000002 4.5000000000000009 27.500000000000004 10.500000000000002 2033.0000000000002 8.5000000000000018 40.500000000000007 5.5000000000000009 9.5000000000000018 52.500000000000007 64.500000000000014 63.000000000000007 1.5000000000000002 15.500000000000002 27.500000000000004 16.500000000000004 40.500000000000007 39.500000000000007 29.500000000000004 10.500000000000002 37.500000000000007
decision_type=2 2 2 2 2 2 2 2 2 2 2 2 2 2 2 2 2 2 2 2 2 2 2 2 2 2 2 2 2 2
left_child=1 5 3 -2 -3 6 -1 21 14 10 11 -6 -10 18 -8 29 -12 -18 -4 20 -20 -5 23 -11 -24 26 27 -25 -19 -13
right_child=2 4 13 7 9 -7 8 -9 12 22 16 15 -14 -15 -16 -17 17 28 19 -21 -22 -23 24 25 -26 -27 -28 -29 -30 -31
leaf_value=-0.071769750468755208 0.079862164465333854 0.045598384253288313 0.081404160445687601 0.016147573586302377 -0.040659354921176734 -0.072008008863105141 -0.0032017627428252795 -0.064060174754563035 0.068856330470417684 -0.061966821605055324 0.076996486838888462 0.017777585575111585 -0.0037640456046287318 -0.050258400105808392 -0.039680902791828482 -0.070156913084895065 -0.0017949145077239504 0.072824140658830958 0.063597799685738754 0.076819308249569965 -0.059820670180228443 -0.074714285508667141 0.082970727902496877 0.062336354088747048 -0.027985834216060247 -0.076903008036238063 0.080539047218578255 -0.078476408703429826 0.0016572974753932053 0.085436739595879371
leaf_count=1465958 22708 74873 27186 89964 317293 2077788 181411 597195 20483 373583 2258 21677 76671 17179 486124 19757 192854 5564 2087 31726 81819 21852 66 3316 123034 21461 1462 21504 19678 1469
internal_value=0 -0.841222 1.11844 0.759192 -0.148667 -1.14748 -0.917631 -0.931171 -0.272964 -0.334874 -0.0367171 -0.444943 0.666809 1.48077 -0.547575 0.678056 0.377948 0.232823 1.50052 1.23469 -0.775017 0.130811 -0.794049 -0.981359 -0.308159 0.115229 0.57919 -0.181948 1.01498 1.05405
internal_count=6400000 5508284 891716 731719 1199849 4308435 2230647 709011 764689 1124976 580550 360196 97154 159997 667535 42903 220354 218096 142818 115632 83906 111816 544426 421326 123100 47743 26282 24820 25242 23146
shrinkage=0.05


Tree=6
num_leaves=31
num_cat=0
split_feature=1 0 4 1 4 3 1 1 4 1 1 4 4 1 3 3 3 3 1 2 1 1 1 1 1 4 1 4 1 3
split_gain=2.65926e+06 344961 162215 628290 106456 97360.7 76999 212386 73249.4 71623.3 55543.9 44338.5 244662 43243.8 38664.3 44013.9 36927 51694.9 33117.2 27835.9 25728.2 22404.2 48116.5 24926.9 20048.9 16435 15098.5 13697.2 13323 10965.5
threshold=18.500000000000004 125728.00000000001 165.50000000000003 28.500000000000004 452.50000000000006 6.5000000000000009 11.500000000000002 7.0000000000000009 114.00000000000001 9.5000000000000018 10.500000000000002 249.00000000000003 267.00000000000006 22.500000000000004 27.500000000000004 40.500000000000007 39.500000000000007 29.500000000000004 10.500000000000002 2033.0000000000002 8.5000000000000018 11.500000000000002 7.0000000000000009 15.500000000000002 16.500000000000004 115.50000000000001 24.500000000000004 27.000000000000004 5.5000000000000009 83.500000000000014
decision_type=2 2 2 2 2 2 2 2 2 2 2 2 2 2 2 2 2 2 2 2 2 2 2 2 2 2 2 2 2 2
left_child=1 6 3 25 11 28 7 -1 10 20 27 -4 26 -6 21 16 17 -16 -11 -14 -9 22 -10 -23 -25 -2 -13 -7 -3 -21
right_child=2 5 4 -5 13 8 -8 9 14 18 -12 12 19 -15 15 -17 -18 -19 -20 29 -22 23 -24 24 -26 -27 -28 -29 -30 -31
leaf_value=-0.069118039897163461 -0.028114405313450608 0.061441561713071316 0.077910656358713415 0.076782751658124745 0.058233762915811373 -0.02989287058573838 -0.069349754052777282 -0.0030425901128420438 -0.043710750417780275 0.065621978828977939 -0.028615870967004145 -0.0098151654479916549 0.075272532502631939 -0.057063500817076264 0.061705359842680788 -0.067817739841973812 0.078913777926290368 -0.071164218097542017 -0.0035770045108005528 0.080471090943531276 -0.037910452737848467 -0.059346689716969853 0.0059905984824371924 0.080117284090457069 -0.026503346786197913 -0.071146827005196145 -0.056939390362482967 0.074534750565157057 0.020491825241058637 -0.082531795737462277
leaf_count=1465958 83033 24950 41129 16470 11694 8888 2077788 181411 326290 20483 66209 99682 39759 87660 8311 53041 3727 52631 76671 58 486124 356858 175529 63 67112 395144 100590 6317 49923 16497
internal_value=0 -0.806758 1.07992 0.49666 1.29379 -0.141991 -1.10232 -0.879763 -0.319886 -0.260215 0.645676 1.36077 1.1153 -0.376462 -0.484938 0.209971 0.632516 -0.112992 0.634621 1.46904 -0.52222 -0.626685 -0.412893 -0.948115 -0.146638 -1.23653 -0.580613 1.32532 0.870848 -0.796669
internal_count=6400000 5508284 891716 494647 397069 1199849 4308435 2230647 1124976 764689 81414 297715 256586 99354 1043562 117710 64669 60942 97154 56314 667535 925852 501819 424033 67175 478177 200272 15205 74873 16555
shrinkage=0.05


Tree=7
num_leaves=31
num_cat=0
split_feature=1 0 4 1 4 3 1 1 4 1 1 4 4 4 3 3 3 3 1 2 1 1 1 1 1 4 1 1 4 1
split_gain=2.43745e+06 317208 149298 577924 98562.3 88456.2 72048.4 197030 66663.7 64893.7 51016.4 41471.3 226183 39396.9 35039.8 40187.1 33894.8 46949.4 30109 25637.6 23478.3 20673.7 43715.8 22840.8 18389.1 15357.8 13855.1 12864.9 12668.2 10138.6
threshold=18.500000000000004 125728.00000000001 165.50000000000003 28.500000000000004 452.50000000000006 6.5000000000000009 11.500000000000002 7.0000000000000009 114.00000000000001 9.5000000000000018 10.500000000000002 249.00000000000003 267.00000000000006 468.00000000000006 27.500000000000004 40.500000000000007 39.500000000000007 29.500000000000004 10.500000000000002 2033.0000000000002 8.5000000000000018 11.500000000000002 7.0000000000000009 15.500000000000002 16.500000000000004 115.50000000000001 24.500000000000004 16.500000000000004 27.000000000000004 150.50000000000003
decision_type=2 2 2 2 2 2 2 2 2 2 2 2 2 2 2 2 2 2 2 2 2 2 2 2 2 2 2 2 2 2
left_child=1 6 3 25 11 27 7 -1 10 20 28 -4 26 -6 21 16 17 -16 -11 29 -9 22 -10 -23 -25 -2 -13 -3 -7 -14
right_child=2 5 4 -5 13 8 -8 9 14 18 -12 12 19 -15 15 -17 -18 -19 -20 -21 -22 23 -24 24 -26 -27 -28 -29 -30 -31
leaf_value=-0.066690129255086966 -0.026826956837567636 0.045378193117711144 0.075506287369385763 0.074489965875172884 -0.056124542492425517 -0.028405589442509611 -0.066917023274287599 -0.0028913073675336017 -0.041736759667444931 0.062670521336822507 -0.027254635146164663 -0.009332744707618558 0.074301880862882821 0.052873223542012938 0.059096315934279046 -0.065219158033927846 0.076046710549154531 -0.06792588789628376 -0.0033992208903919473 -0.038591126578861795 -0.036236594054025635 -0.056962944542173925 0.005690389808576321 0.077781908340100459 -0.025245948400945219 -0.06855836527643018 -0.054606680880049177 -0.065216213608870935 0.072105526414809162 0.01589708766607301
leaf_count=1465958 83033 65514 41129 16470 86496 8888 2077788 181411 326290 20483 66209 99682 29413 12858 8311 53041 3727 52631 76671 16555 486124 356858 175529 63 67112 395144 100590 9359 6317 10346
internal_value=0 -0.77483 1.0447 0.480351 1.25175 -0.13578 -1.06056 -0.844502 -0.305973 -0.248175 0.620758 1.31716 1.07792 -0.360158 -0.463546 0.201617 0.606953 -0.107973 0.604645 1.42347 -0.498197 -0.59856 -0.393325 -0.909137 -0.140014 -1.18904 -0.554049 0.832531 1.28036 1.45876
internal_count=6400000 5508284 891716 494647 397069 1199849 4308435 2230647 1124976 764689 81414 297715 256586 99354 1043562 117710 64669 60942 97154 56314 667535 925852 501819 424033 67175 478177 200272 74873 15205 39759
shrinkage=0.05


Tree=8
num_leaves=31
num_cat=0
split_feature=0 2 4 2 4 2 2 4 3 4 4 4 4 4 4 4 4 4 3 4 3 4 4 4 4 4 4 4 4 4
split_gain=810545 400557 330544 178962 125378 116469 107042 97283.2 82374 47871.9 238689 191882 47712.3 84669.1 64863.9 49336.5 34931.7 105492 51169.1 47853.7 30340.1 27897 26518.7 24454.7 23722.9 22682.4 59032.6 133519 24260.7 58872.2
threshold=125728.00000000001 1.0000000180025095e-35 103.00000000000001 1.0000000180025095e-35 20.000000000000004 3.0000000000000004 3.0000000000000004 103.00000000000001 132.50000000000003 378.00000000000006 267.00000000000006 275.50000000000006 180.00000000000003 214.00000000000003 114.00000000000001 112.00000000000001 265.50000000000006 275.50000000000006 7.5000000000000009 244.50000000000003 132.50000000000003 212.50000000000003 20.000000000000004 204.00000000000003 242.50000000000003 244.50000000000003 212.50000000000003 214.00000000000003 114.00000000000001 112.00000000000001
decision_type=2 2 2 2 2 2 2 2 2 2 2 2 2 2 2 2 2 2 2 2 2 2 2 2 2 2 2 2 2 2
left_child=1 -1 4 -2 -3 9 7 22 -7 10 25 -12 14 21 15 -9 19 -18 -19 24 -8 23 -5 -14 -15 26 28 -28 29 -4
right_child=3 2 5 6 -6 8 20 12 -10 -11 11 -13 13 16 -16 -17 17 18 -20 -21 -22 -23 -24 -25 -26 -27 27 -29 -30 -31
leaf_value=0.067727979128140062 0.073435315876540175 -0.06645521096606001 -0.040726627170736981 -0.0095732460998463696 0.071648949724068142 0.071385688965376934 0.074410796829217835 -0.013625855086086767 -0.076952393215521275 -0.053908864715524599 0.074852870366114654 -0.020425637456491161 0.073421926647057018 -0.0041281220649491508 -0.024963666998229446 0.072187103415868412 0.07188553716425615 0.049970328156067959 -0.0094792931253940248 -0.040019493594075889 -0.081530534725745341 0.075653232932369655 0.073439704866859135 -0.016744749080064566 0.062236080114188498 -0.057476966116091169 0.085912118183200187 -0.036306153299725891 -0.049561542979939754 0.064931165333945759
leaf_count=19862 9868 81072 241742 23721 9368 3952 3038 76329 53061 1200142 1411 401555 989 72302 452450 4231 8030 29523 437476 229685 13582 1736 4786 46250 8623 806535 3003 308619 1837179 9880
internal_value=0 -0.428874 -0.55463 0.638028 1.00537 -0.681634 0.456104 0.338783 0.76321 -0.733885 -0.640498 0.272505 0.219494 0.383618 -0.159655 0.66488 0.185515 0.371378 0.0428093 -0.252823 1.39527 1.18234 1.28312 0.389157 0.431706 -0.863712 -0.779391 -0.152167 -0.908898 -0.419717
internal_count=6400000 4977381 4957519 1422619 90440 4867079 1412751 1396131 57013 4810066 3609924 402966 1367624 834614 533010 80560 785639 475029 466999 310610 16620 48975 28507 47239 80925 3206958 2400423 311622 2088801 251622
shrinkage=0.05


Tree=9
num_leaves=31
num_cat=0
split_feature=1 0 4 1 4 3 1 1 4 1 1 1 4 4 3 3 3 3 1 1 2 1 1 1 1 4 1 1 4 1
split_gain=2.07971e+06 270284 132562 499370 83155.4 76131.9 67424.1 183504 55866.1 55220.5 43828.6 36254.2 35575.9 192410 31894.1 36777.3 30993.5 42686 25121.4 22188.6 22159.2 18761.6 40138.2 20253.6 15695.9 14454.3 13421.1 12001.4 11198 10527.4
threshold=18.500000000000004 125728.00000000001 165.50000000000003 28.500000000000004 452.50000000000006 6.5000000000000009 11.500000000000002 7.0000000000000009 114.00000000000001 9.5000000000000018 10.500000000000002 22.500000000000004 249.00000000000003 267.00000000000006 27.500000000000004 40.500000000000007 39.500000000000007 29.500000000000004 10.500000000000002 8.5000000000000018 2033.0000000000002 11.500000000000002 7.0000000000000009 15.500000000000002 16.500000000000004 127.00000000000001 24.500000000000004 5.5000000000000009 27.000000000000004 9.5000000000000018
decision_type=2 2 2 2 2 2 2 2 2 2 2 2 2 2 2 2 2 2 2 2 2 2 2 2 2 2 2 2 2 2
left_child=1 6 3 25 12 27 7 -1 10 19 28 -6 -4 26 21 16 17 -16 -11 -9 -15 22 -10 -23 -25 -2 -14 -3 -7 -29
right_child=2 5 4 -5 11 8 -8 9 14 18 -12 -13 13 20 15 -17 -18 -19 -20 -21 -22 23 -24 24 -26 -27 -28 29 -30 -31
leaf_value=-0.062952662644552557 -0.034702725686967605 0.056138499832724779 0.071614958943555851 0.070659186279254646 0.054863917806220346 -0.026630296004716371 -0.063065238492021738 -0.00024784518584376064 -0.039455563300031971 0.059167907888128382 -0.025151912156691922 -0.051222402895090752 -0.0062944612602267042 0.069344348551602888 0.057284085108831741 -0.062293048447165114 0.073928838777400738 -0.06435810754515793 -0.0013787734689152424 -0.032807248880112848 -0.035723053039097834 -0.053838444503244279 0.0060871959837539838 0.073976667116537539 -0.023091027675514325 -0.069395574188927875 -0.051203506558379276 -0.056066465524009047 0.068072987605618071 0.027273196917653692
leaf_count=1465958 161628 24950 41129 16470 11694 8888 2077788 181411 326290 20483 66209 87660 99682 39759 8311 53041 3727 52631 76671 486124 16555 356858 175529 63 67112 316549 100590 12782 6317 37141
internal_value=0 -0.719481 0.987982 0.446256 1.18712 -0.127143 -0.987813 -0.777164 -0.285822 -0.201174 0.574454 -0.303911 1.24919 1.02396 -0.429788 0.208915 0.597686 -0.0879884 0.587654 -0.43362 1.35315 -0.559018 -0.363691 -0.857889 -0.12942 -1.11735 -0.487055 0.777827 1.20348 0.337929
internal_count=6400000 5508284 891716 494647 397069 1199849 4308435 2230647 1124976 764689 81414 99354 297715 256586 1043562 117710 64669 60942 97154 667535 56314 925852 501819 424033 67175 478177 200272 74873 15205 49923
shrinkage=0.05


Tree=10
num_leaves=31
num_cat=0
split_feature=1 0 4 1 4 3 1 1 4 1 1 4 4 4 3 3 3 3 1 2 1 1 1 1 1 4 1 1 4 2
split_gain=1.91386e+06 249666 122792 489977 78361 69306.8 63636.4 171247 50957.4 50085.9 40453.3 37161.5 178987 33126.6 28932.1 33699.2 28579.3 38908.5 22973.8 20620.9 20267.4 17396.9 36524.8 18637.5 14464.1 13405 12355.9 11314.8 10425.8 10243.7
threshold=18.500000000000004 125728.00000000001 192.50000000000003 28.500000000000004 452.50000000000006 6.5000000000000009 11.500000000000002 7.0000000000000009 114.00000000000001 9.5000000000000018 10.500000000000002 249.00000000000003 267.00000000000006 468.00000000000006 27.500000000000004 40.500000000000007 39.500000000000007 29.500000000000004 10.500000000000002 2033.0000000000002 8.5000000000000018 11.500000000000002 7.0000000000000009 15.500000000000002 16.500000000000004 115.50000000000001 24.500000000000004 16.500000000000004 27.000000000000004 1.5000000000000002
decision_type=2 2 2 2 2 2 2 2 2 2 2 2 2 2 2 2 2 2 2 2 2 2 2 2 2 2 2 2 2 2
left_child=1 6 3 25 11 27 7 -1 10 20 28 -4 26 -6 21 16 17 -16 -11 -14 -9 22 -10 -23 -25 -2 29 -3 -7 -13
right_child=2 5 4 -5 13 8 -8 9 14 18 -12 12 19 -15 15 -17 -18 -19 -20 -21 -22 23 -24 24 -26 -27 -28 -29 -30 -31
leaf_value=-0.060984890573392375 -0.022992457162034279 0.040844031250418231 0.070958379622513959 0.069637337427842602 -0.050595140532189713 -0.0253267531512914 -0.061103160645720057 -0.00023546180521124419 -0.037724705391220775 0.056718716096831483 -0.023969671751748522 0.0038720426554198074 0.067522377384093488 0.05000000285500953 0.054992146906516687 -0.060109695731609507 0.07153397982908552 -0.061698437014038335 -0.0013100329310551336 -0.034133409746971148 -0.031390919930934347 -0.051814343166270774 0.0057821020487494601 0.072248825246395393 -0.022006025070227586 -0.062221280512221359 -0.049233412571015961 -0.063148395659445924 0.066185342642650219 -0.068832399594728463
leaf_count=1465958 83033 65514 22837 17145 86496 8888 2077788 181411 326290 20483 66209 77882 39759 12858 8311 53041 3727 52631 76671 16555 486124 356858 175529 63 67112 412761 100590 9359 6317 21800
internal_value=0 -0.692911 0.960168 0.451893 1.16115 -0.121798 -0.953408 -0.747879 -0.27389 -0.192022 0.55397 1.22378 0.993463 -0.291427 -0.411527 0.201316 0.575622 -0.0843879 0.560935 1.3172 -0.413914 -0.534642 -0.346707 -0.824541 -0.123691 -1.07704 -0.465224 0.745067 1.16802 -0.11969
internal_count=6400000 5508284 891716 512939 378777 1199849 4308435 2230647 1124976 764689 81414 279423 256586 99354 1043562 117710 64669 60942 97154 56314 667535 925852 501819 424033 67175 495794 200272 74873 15205 99682
shrinkage=0.05


Tree=11
num_leaves=31
num_cat=0
split_feature=1 0 1 1 4 3 1 1 1 4 1 1 3 1 1 3 4 3 3 2 3 3 1 1 3 2 1 1 4 1
split_gain=1.76356e+06 230877 114524 594278 134509 63122.9 60208.1 160101 57146.8 46511.7 45443.8 37388.2 27237.4 21048.7 18518.1 15298.1 21770.5 14509.9 52461.7 13449.1 13241.2 23416.7 11004 10407.3 10144.6 9920.28 9876.8 17129.7 9725.4 9666.64
threshold=18.500000000000004 125728.00000000001 28.500000000000004 19.500000000000004 345.00000000000006 6.5000000000000009 11.500000000000002 7.0000000000000009 20.500000000000004 114.00000000000001 9.5000000000000018 10.500000000000002 18.500000000000004 10.500000000000002 8.5000000000000018 22.500000000000004 452.50000000000006 40.500000000000007 39.500000000000007 1.5000000000000002 29.500000000000004 27.500000000000004 5.5000000000000009 13.500000000000002 25.500000000000004 1.0000000180025095e-35 11.500000000000002 7.0000000000000009 27.000000000000004 9.5000000000000018
decision_type=2 2 2 2 2 2 2 2 2 2 2 2 2 2 2 2 2 2 2 2 2 2 2 2 2 2 2 2 2 2
left_child=1 6 3 -2 -4 22 7 -1 19 11 14 28 -11 -12 24 16 25 18 20 -5 21 26 -3 -8 -9 -6 27 -14 -7 -24
right_child=2 5 4 8 15 9 23 10 -10 12 13 -13 17 -15 -16 -17 -18 -19 -20 -21 -22 -23 29 -25 -26 -27 -28 -29 -30 -31
leaf_value=-0.059145461061808895 0.068078509835195214 0.052443900755889894 0.069400350303612052 0.015793223235912174 -0.16397079715612844 -0.02409378203620248 -0.069296625007024742 0.0046763307168812916 -0.052368849019064516 -0.034394874659492924 0.054439575623920239 -0.022846343230390247 -0.026026240744719709 -0.0012447114689923503 -0.030041216758445545 -0.07003283587127769 -0.039632207811973963 -0.058071309685691345 0.069346051408705159 -0.066480560520224594 -0.059238371795586678 0.052849350710581736 -0.055226448160253933 -0.05396849087575703 -0.065340388766421606 0.05153446993965935 -0.031592118099429599 0.017862718997309152 0.064436365967528705 0.024644287342959412
leaf_count=1465958 22708 24950 36044 89964 2623 8888 750155 161486 597195 536109 20483 66209 136729 76671 486124 46112 66488 53041 3727 21852 52631 8311 12782 1327633 19925 8730 180409 72605 6317 37141
internal_value=0 -0.667832 0.934635 0.625316 1.25002 -0.11675 -0.92099 -0.720175 -0.736586 -0.262606 -0.183324 0.534624 -0.394265 0.535769 -0.395146 -0.426951 -0.0714419 -0.150365 -0.0812877 0.147546 -0.265029 -0.181733 0.714026 -1.18539 -0.00447387 0.860994 -0.301012 -0.0944977 1.13497 0.291625
internal_count=6400000 5508284 891716 731719 159997 1199849 4308435 2230647 709011 1124976 764689 81414 1043562 97154 667535 123953 77841 507453 454412 111816 450685 398054 74873 2077788 181411 11353 389743 209334 15205 49923
shrinkage=0.05


Tree=12
num_leaves=31
num_cat=0
split_feature=1 0 1 1 4 3 1 1 1 4 1 1 3 1 1 3 4 3 3 2 3 3 1 1 3 3 4 1 1 2
split_gain=1.62649e+06 214006 107149 552527 125985 57484.8 57081.4 149909 52810.2 42420.3 41244.4 34596.9 24673.7 19315.1 16921.2 13935.5 19867.8 13367 48256.1 12289.8 12133.3 21344.7 10243.5 10040.1 9487.29 9235.85 9087.69 8911.48 13802.5 8695.42
threshold=18.500000000000004 125728.00000000001 28.500000000000004 19.500000000000004 345.00000000000006 6.5000000000000009 11.500000000000002 7.0000000000000009 20.500000000000004 114.00000000000001 9.5000000000000018 10.500000000000002 18.500000000000004 10.500000000000002 8.5000000000000018 22.500000000000004 452.50000000000006 40.500000000000007 39.500000000000007 1.5000000000000002 29.500000000000004 27.500000000000004 16.500000000000004 13.500000000000002 22.500000000000004 25.500000000000004 27.000000000000004 11.500000000000002 7.0000000000000009 1.0000000180025095e-35
decision_type=2 2 2 2 2 2 2 2 2 2 2 2 2 2 2 2 2 2 2 2 2 2 2 2 2 2 2 2 2 2
left_child=1 6 3 -2 -4 22 7 -1 19 11 14 26 -11 -12 25 16 29 18 20 -5 21 24 -3 -8 27 -9 -7 28 -14 -6
right_child=2 5 4 8 15 9 23 10 -10 12 13 -13 17 -15 -16 -17 -18 -19 -20 -21 -22 -23 -24 -25 -26 -27 -28 -29 -30 -31
leaf_value=-0.057417820705925299 0.066650429478310846 0.037702597233009061 0.067841823500841489 0.014987138836125281 -0.1467409059889668 -0.02292622317713304 -0.067528401879468042 0.0044399682449480192 -0.050557728336397247 -0.03286486657658888 0.052308367906480906 -0.021778094375759005 -0.020241419825843932 -0.001182638510406876 -0.028753314129828945 -0.067158604405163663 -0.038116437616735485 -0.056159042256163486 0.067335951308036976 -0.064250294865243959 -0.056950497465589993 0.050837049675347717 -0.061446198113557962 -0.052299433833615627 -0.052815938854984715 -0.062643942963863761 0.0628081170219804 -0.026964688749925331 0.021096834661251097 0.049520254490615145
leaf_count=1465958 22708 65514 36044 89964 2623 8888 750155 161486 597195 536109 20483 66209 119269 76671 486124 46112 66488 53041 3727 21852 52631 8311 9359 1327633 50664 19925 6317 156219 63591 8730
internal_value=0 -0.643794 0.910915 0.608495 1.2203 -0.111774 -0.890328 -0.693889 -0.708368 -0.251479 -0.175056 0.516283 -0.377178 0.512001 -0.377274 -0.409733 -0.0685057 -0.143981 -0.0777533 0.140209 -0.25322 -0.173532 0.684628 -1.15095 -0.287243 -0.00427134 1.10404 -0.201547 0.00216861 0.825248
internal_count=6400000 5508284 891716 731719 159997 1199849 4308435 2230647 709011 1124976 764689 81414 1043562 97154 667535 123953 77841 507453 454412 111816 450685 398054 74873 2077788 389743 181411 15205 339079 182860 11353
shrinkage=0.05


Tree=13
num_leaves=31
num_cat=0
split_feature=1 0 1 1 4 1 1 1 1 1 4 1 1 2 4 4 4 4 1 1 4 4 4 4 4 4 4 4 2 2
split_gain=1.50141e+06 198587 100458 514366 118198 54925.9 139339 48842.6 38465.1 37633.7 49828 18267.7 15571.5 15239 13343.1 11474.1 11102.6 26488.4 10322.8 8990.58 15293.2 9014.97 11238.1 8883.19 8303.22 8531.81 8139.22 8419.87 7733.65 7662.85
threshold=18.500000000000004 127163.00000000001 28.500000000000004 19.500000000000004 345.00000000000006 11.500000000000002 7.0000000000000009 20.500000000000004 9.5000000000000018 11.500000000000002 114.00000000000001 10.500000000000002 8.5000000000000018 1.5000000000000002 263.50000000000006 409.50000000000006 452.50000000000006 378.00000000000006 16.500000000000004 2.5000000000000004 473.00000000000006 212.50000000000003 217.00000000000003 244.50000000000003 127.00000000000001 265.50000000000006 204.00000000000003 134.50000000000003 1.5000000000000002 1.5000000000000002
decision_type=2 2 2 2 2 2 2 2 2 2 2 2 2 2 2 2 2 2 2 2 2 2 2 2 2 2 2 2 2 2
left_child=1 5 3 -2 -4 6 -1 15 12 10 -3 -10 -8 19 23 29 17 -6 -7 20 21 -12 -23 26 -9 -26 27 -11 -14 -5
right_child=2 9 4 7 16 18 8 24 11 14 13 -13 28 -15 -16 -17 -18 -19 -20 -21 -22 22 -24 -25 25 -27 -28 -29 -30 -31
leaf_value=-0.055430371054111541 0.065331667803309526 0.05550784854980461 0.066404468777930103 0.0021285533965314982 -0.049675280184569973 -0.060133005451681834 -0.0003379769855224046 -0.031010849593771036 0.050536501258916948 -0.019907257827077751 -0.029486664289934062 -0.0013565942668162577 -0.024995485383883617 -0.077459730400902926 -0.0073537489972182917 0.048008350708191663 -0.044206788295249773 0.062770889954579509 -0.043073789355500242 0.0058131245294174468 -0.07490641273512734 0.098003206333478976 0.00028428466990111488 -0.055602607714515466 -0.061595107658793814 -0.015012280556073065 0.025955034002156586 -0.060294002525631135 -0.075748711350170736 -0.062119569874416483
leaf_count=1473241 22708 16415 36044 77882 32601 1597347 182464 161559 20586 149592 79256 76999 454824 25877 210278 12134 87243 4109 490117 360244 37295 70 89798 132275 402821 32815 11021 66996 33589 21800
internal_value=0 -0.62094 0.888739 0.592656 1.19277 -0.858678 -0.665894 -0.681567 -0.167603 -0.101432 0.11438 0.493893 -0.36328 -0.0466747 -0.446878 0.133269 -0.39355 0.129368 -1.11696 -0.00875135 -0.284443 -0.129614 0.141842 -0.676169 -0.976798 -1.13304 -0.490875 -0.595294 -0.553734 -0.123705
internal_count=6400000 5508284 891716 731719 159997 4329167 2241703 709011 768462 1179117 608955 97585 670877 592540 570162 111816 123953 36710 2087464 566663 206419 169124 89868 359884 597195 435636 227609 216588 488413 99682
shrinkage=0.05


Tree=14
num_leaves=31
num_cat=0
split_feature=0 2 4 2 4 2 2 4 4 4 3 3 4 4 4 3 4 4 3 4 4 3 4 4 4 4 4 4 4 4
split_gain=496726 243400 200455 125792 81546.7 73071.2 67473.8 62913.6 60441 56791.1 56276.1 33645.8 29760.5 132354 107586 23146.9 22889.6 73585.8 34004 30878.9 22431.7 20281.9 17808.6 16494.9 15948.9 15545.5 13363.8 32920 56271.2 16479.3
threshold=125728.00000000001 1.0000000180025095e-35 103.00000000000001 1.0000000180025095e-35 20.000000000000004 3.0000000000000004 3.0000000000000004 114.00000000000001 180.00000000000003 214.00000000000003 132.50000000000003 25.500000000000004 378.00000000000006 267.00000000000006 275.50000000000006 132.50000000000003 265.50000000000006 275.50000000000006 7.5000000000000009 244.50000000000003 212.50000000000003 12.500000000000002 204.00000000000003 242.50000000000003 316.00000000000006 452.50000000000006 244.50000000000003 212.50000000000003 214.00000000000003 114.00000000000001
decision_type=2 2 2 2 2 2 2 2 2 2 2 2 2 2 2 2 2 2 2 2 2 2 2 2 2 2 2 2 2 2
left_child=1 -1 4 -2 -3 7 11 -5 -9 20 -8 12 13 21 -15 -7 19 -18 -19 23 22 -4 -10 -11 -16 -20 27 29 -29 -23
right_child=3 2 6 5 -6 15 10 8 9 16 -12 -13 -14 14 24 -17 17 18 25 -21 -22 26 -24 -25 -26 -27 -28 28 -30 -31
leaf_value=0.057874660498767549 0.064531387095327061 -0.057092438061987362 -0.05062865614105358 0.043556369854176671 0.062449250970800264 0.065656120566884496 0.062147914741600044 -0.019763072344513837 0.065348822474267668 -0.0033746138504052552 -0.069223037252007222 -0.053047394266567675 -0.042420630317949265 0.066265951166295259 -0.045991535024089876 -0.075527198131877971 0.064112296597150162 0.042159800217987292 0.002095477767489144 -0.033144780323951455 0.067697599688916726 -0.005876709613187368 -0.01592779185771238 0.054021927006178305 -0.0032570416979106395 -0.030162496588904592 -0.042204044332060847 0.07271301530002007 -0.019933672782380646 -0.034760882823819866
leaf_count=19862 9868 81072 518853 109067 9368 3038 3952 452450 989 72302 53061 584597 1048164 1310 118655 13582 8030 29523 269774 229685 1736 166041 46250 8623 234692 167702 574894 2166 219975 1340719
internal_value=0 -0.353836 -0.454178 0.526392 0.868139 0.372201 -0.5549 0.275192 0.142747 0.315009 0.636946 -0.59538 -0.541951 -0.461917 0.286929 1.22017 0.152452 0.309348 0.039701 -0.210763 1.02223 -0.645622 0.289788 0.352897 -0.259741 -0.152989 -0.57408 -0.497525 0.0563334 -0.615525
internal_count=6400000 4977381 4957519 1422619 90440 1412751 4867079 1396131 1287064 834614 57013 4810066 4225469 3177305 354657 16620 785639 475029 466999 310610 48975 2822648 47239 80925 353347 437476 2303795 1728901 222141 1506760
shrinkage=0.05


Tree=15
num_leaves=31
num_cat=0
split_feature=1 0 1 1 4 1 1 3 1 1 4 1 3 1 1 3 4 3 3 3 3 2 1 1 4 3 1 3 3 2
split_gain=1.29727e+06 171312 91807.2 448688 104732 52224.5 132999 49235.9 47082.9 32761.8 31545.9 29694.2 22203.7 15678.2 14660.2 12667.8 16170.6 12255.6 43979.7 11077.8 19314.9 10375.8 10012.5 9849.36 9022.52 8720.36 8708.27 8302.99 8297.56 7710.47
threshold=18.500000000000004 125728.00000000001 28.500000000000004 19.500000000000004 345.00000000000006 11.500000000000002 7.0000000000000009 6.5000000000000009 20.500000000000004 9.5000000000000018 114.00000000000001 10.500000000000002 18.500000000000004 10.500000000000002 8.5000000000000018 22.500000000000004 452.50000000000006 40.500000000000007 39.500000000000007 29.500000000000004 27.500000000000004 1.5000000000000002 13.500000000000002 5.5000000000000009 27.000000000000004 22.500000000000004 9.5000000000000018 25.500000000000004 12.500000000000002 1.0000000180025095e-35
decision_type=2 2 2 2 2 2 2 2 2 2 2 2 2 2 2 2 2 2 2 2 2 2 2 2 2 2 2 2 2 2
left_child=1 5 3 -2 -4 6 -1 23 21 14 11 24 28 -11 27 16 29 18 19 20 25 -5 -7 -3 -9 -14 -25 -8 -12 -6
right_child=2 7 4 8 15 22 9 10 -10 13 12 -13 17 -15 -16 -17 -18 -19 -20 -21 -22 -23 -24 26 -26 -27 -28 -29 -30 -31
leaf_value=-0.053211235973992868 0.062995284407117283 0.048301829520938117 0.064204622995871638 0.015575184538665736 -0.13441022919600132 -0.063656043261412359 0.0061295298193725194 -0.026566367114281605 -0.046428015986603677 0.048758471852777999 -0.054195877248828322 -0.021408724542399241 -0.0086282552354105639 0.00023999754522787141 -0.024981258955239352 -0.063269910972158491 -0.033557529048380406 -0.053496180376365547 0.065933784693553307 -0.053921172052718402 0.04958095330194584 -0.058966903394774187 -0.04794529584042756 -0.054140735826250869 0.058988233295889994 -0.049978333475471697 0.021759228358534152 -0.058109999988630312 -0.0252379985408159 0.047034419834325603
leaf_count=1465958 22708 24950 36044 89964 2623 750155 161486 8888 597195 20483 110875 66209 339079 76671 486124 46112 66488 53041 3727 52631 8311 21852 1327633 12782 6317 50664 37141 19925 425234 8730
internal_value=0 -0.579625 0.852191 0.562512 1.15099 -0.808159 -0.617659 -0.101733 -0.632128 -0.130033 -0.232171 0.444567 -0.34014 0.486139 -0.312146 -0.356028 -0.0272706 -0.117337 -0.0540197 -0.222179 -0.145956 0.167997 -1.06651 0.642121 1.01733 -0.254894 0.24048 0.034845 -0.607792 0.779708
internal_count=6400000 5508284 891716 731719 159997 4308435 2230647 1199849 709011 764689 1124976 81414 1043562 97154 667535 123953 77841 507453 454412 450685 398054 111816 2077788 74873 15205 389743 49923 181411 536109 11353
shrinkage=0.05


Tree=16
num_leaves=31
num_cat=0
split_feature=1 0 1 1 4 1 1 3 1 1 1 4 1 1 3 2 1 3 4 1 3 1 3 4 1 1 4 4 4 3
split_gain=1.1997e+06 159433 86459.4 419037 98694 50323.1 123616 44969.2 43565.8 30564.4 28931.9 39332.3 15560.2 14884.2 14223.5 13666.2 12612.9 11587.1 14775.9 10778.7 19092.5 14399.9 10248.7 10149.4 10138.3 9071 8394.35 7801.26 7963.48 7685.86
threshold=18.500000000000004 127163.00000000001 28.500000000000004 19.500000000000004 345.00000000000006 11.500000000000002 7.0000000000000009 6.5000000000000009 20.500000000000004 9.5000000000000018 11.500000000000002 114.00000000000001 2.5000000000000004 10.500000000000002 27.500000000000004 1.5000000000000002 8.5000000000000018 22.500000000000004 452.50000000000006 15.500000000000002 27.500000000000004 16.500000000000004 40.500000000000007 409.50000000000006 13.500000000000002 16.500000000000004 27.000000000000004 127.00000000000001 265.50000000000006 39.500000000000007
decision_type=2 2 2 2 2 2 2 2 2 2 2 2 2 2 2 2 2 2 2 2 2 2 2 2 2 2 2 2 2 2
left_child=1 5 3 -2 -4 6 -1 25 23 15 11 26 14 -11 -13 16 -8 18 -6 20 -12 -21 29 -5 -7 -3 -9 -10 -29 -22
right_child=2 7 4 8 17 24 9 10 27 13 19 12 -14 -15 -16 -17 -18 -19 -20 21 22 -23 -24 -25 -26 -27 -28 28 -30 -31
leaf_value=-0.0514303203904449 0.061933509568506441 0.034617126483738714 0.063030590005890619 -0.0041869804032381849 0.037453491859784825 -0.06237507706937552 0.0037673275913682708 -0.025259072034607297 -0.027395367747594435 0.047176827194459613 -0.045257501391069203 -0.040569968919121728 0.00042165736860608476 -4.8572877592004455e-06 0.01603093076241557 -0.072623989456791882 -0.021462522175108564 -0.060878138306265553 -0.032289485871148584 0.072472955296082664 -0.0040031932318829334 -0.01677696598051712 -0.059825768102498726 0.046872588167121282 -0.046401338627136829 -0.059533209716320458 0.057632702955401127 -0.057711812909855081 -0.012121169767559541 0.063623987104252752
leaf_count=1473241 22708 64295 36044 99682 11353 753606 173730 8842 161559 20586 367134 179401 351877 76999 23967 42323 454824 46112 66488 66 24469 121072 21109 12134 1333858 9228 6213 402821 32815 1444
internal_value=0 -0.55942 0.83337 0.548926 1.1281 -0.780317 -0.593232 -0.0922035 -0.608668 -0.125054 -0.218621 -0.00968958 -0.162606 0.468676 -0.569734 -0.301217 -0.248542 -0.342333 -0.0261596 -0.54707 -0.710598 -0.144958 0.131562 0.159705 -1.03677 0.625108 0.988482 -0.898018 -1.05455 0.484448
internal_count=6400000 5508284 891716 731719 159997 4329167 2241703 1179117 709011 768462 1105594 570300 555245 97585 203368 670877 628554 123953 77841 535294 414156 121138 47022 111816 2087464 73523 15055 597195 435636 25913
shrinkage=0.05


Tree=17
num_leaves=31
num_cat=0
split_feature=1 0 1 1 4 1 1 3 1 1 1 4 1 3 1 2 1 1 3 1 3 4 1 3 2 1 2 4 1 3
split_gain=1.1101e+06 148335 81502.9 391726 93138.5 47400.6 117412 40879.4 40381.5 27009.7 26740.6 37636 13708.2 14033.6 13305.8 12729 11387.7 10696.3 17401.9 13146.1 10607.6 16730.5 9619.3 9495.6 9343.56 9103.53 9073.93 8131.52 7987 7488.54
threshold=18.500000000000004 125728.00000000001 28.500000000000004 19.500000000000004 345.00000000000006 11.500000000000002 7.0000000000000009 6.5000000000000009 20.500000000000004 9.5000000000000018 11.500000000000002 114.00000000000001 2.5000000000000004 27.500000000000004 10.500000000000002 1.5000000000000002 8.5000000000000018 15.500000000000002 27.500000000000004 16.500000000000004 33.000000000000007 452.50000000000006 13.500000000000002 40.500000000000007 1.5000000000000002 5.5000000000000009 1.0000000180025095e-35 27.000000000000004 9.5000000000000018 40.500000000000007
decision_type=2 2 2 2 2 2 2 2 2 2 2 2 2 2 2 2 2 2 2 2 2 2 2 2 2 2 2 2 2 2
left_child=1 5 3 -2 -4 6 -1 25 24 15 11 27 13 -13 -11 16 -8 18 -12 -19 21 26 -7 -20 -5 -3 -6 -9 -27 -15
right_child=2 7 4 8 20 22 9 10 -10 14 17 12 -14 29 -16 -17 -18 19 23 -21 -22 -23 -24 -25 -26 28 -28 -29 -30 -31
leaf_value=-0.050438814649749752 0.06093976224833271 0.045402976423359359 0.06193291006688191 0.014338240580177611 -0.10766545184743387 -0.061022182597717904 0.0037144697783469162 -0.024761975537808949 -0.043473243469246817 0.045233278540993176 -0.043858929050624718 -0.039098502232095329 -6.9481917866346114e-05 0.032705778626302043 0.0002282337547250793 -0.070516964229955528 -0.020342049986482605 0.070914956057925152 0.022756629571917205 -0.01539549329815245 -0.072968840860183168 -0.035929522472435603 -0.045207123229402693 -0.058490798854267834 -0.057126007987085982 -0.053043556680417103 0.044851729677229175 0.056464435005554536 0.019660966171982989 -0.062427937029962591
leaf_count=1465958 22708 24950 36044 89964 3943 750155 172718 9005 597195 20483 373583 182878 357964 13131 76671 42172 452645 66 26282 123034 31847 78754 1327633 21461 21852 12782 9409 6317 37141 11255
internal_value=0 -0.540003 0.815564 0.536036 1.10654 -0.758195 -0.574977 -0.0930949 -0.586561 -0.118503 -0.212767 -0.0133755 -0.160965 -0.540635 0.444947 -0.28442 -0.233767 -0.528488 -0.692096 -0.130875 -0.329274 -0.102394 -1.0113 0.115025 0.151935 0.591407 0.685633 0.966078 0.204286 0.327848
internal_count=6400000 5508284 891716 731719 159997 4308435 2230647 1199849 709011 764689 1124976 580550 565228 207264 97154 667535 625363 544426 421326 123100 123953 92106 2077788 47743 111816 74873 13352 15322 49923 24386
shrinkage=0.05


Tree=18
num_leaves=31
num_cat=0
split_feature=1 0 1 1 4 1 1 1 3 1 1 4 1 1 2 3 1 1 3 4 1 3 1 4 3 1 4 4 4 3
split_gain=1.02768e+06 138056 77008.9 366480 87926.6 45713.8 109053 37388.5 37377.5 25226 24330.8 33613.4 13012.5 12678.1 11882.9 11827.5 10469.8 10202.2 9864.3 12225.9 9214.74 16142.6 12312.2 9045.28 8688.43 8225.69 7656.75 7838.43 7377.6 7254.4
threshold=18.500000000000004 127163.00000000001 28.500000000000004 19.500000000000004 345.00000000000006 11.500000000000002 7.0000000000000009 20.500000000000004 6.5000000000000009 9.5000000000000018 11.500000000000002 114.00000000000001 2.5000000000000004 10.500000000000002 1.5000000000000002 27.500000000000004 8.5000000000000018 16.500000000000004 22.500000000000004 452.50000000000006 15.500000000000002 27.500000000000004 16.500000000000004 409.50000000000006 40.500000000000007 16.500000000000004 127.00000000000001 265.50000000000006 27.000000000000004 39.500000000000007
decision_type=2 2 2 2 2 2 2 2 2 2 2 2 2 2 2 2 2 2 2 2 2 2 2 2 2 2 2 2 2 2
left_child=1 5 3 -2 -4 6 -1 23 25 14 11 28 15 -11 16 -13 -8 -7 19 -6 21 -12 -22 -5 29 -3 -9 -28 -10 -23
right_child=2 8 4 7 18 17 9 26 10 13 20 12 -14 -15 -16 -17 -18 -19 -20 -21 22 24 -24 -25 -26 -27 27 -29 -30 -31
leaf_value=-0.048761685745030391 0.060006754113821871 0.032069521513753779 0.060903211850812877 -0.004265867169074975 0.034515909094725787 -0.05374925131613667 0.0033911966394682535 -0.024532346281646539 -0.022827274795694817 0.043844566332037746 -0.04212870027170857 -0.037369764432069741 0.00040403559740207146 -1.6135100167048894e-05 -0.068700125261080422 0.014599524633768663 -0.019641270816573249 -0.035914033249083377 -0.056843646179436727 -0.029707953382530728 0.069492757871525243 -0.0049381234994355493 -0.015276599884995976 0.044037582609188636 -0.056868949085926872 -0.057844392843318042 -0.055139545445687776 -0.0095001892901425584 0.055214010473270882 0.061406488677114027
leaf_count=1473241 22708 64295 36044 99682 11353 1597347 173730 161559 8842 20586 367134 179401 351877 76999 42323 23967 454824 490117 46112 66488 66 24469 121072 12134 21109 9228 402821 32815 6213 1444
internal_value=0 -0.521373 0.798563 0.523569 1.08633 -0.732331 -0.552345 -0.564976 -0.0844096 -0.114288 -0.200435 -0.00845626 -0.147316 0.429193 -0.27481 -0.52408 -0.226381 -0.983791 -0.3173 -0.0222994 -0.505986 -0.660266 -0.132805 0.14447 0.121696 0.576237 -0.841281 -1.00036 0.94183 0.444026
internal_count=6400000 5508284 891716 731719 159997 4329167 2241703 709011 1179117 768462 1105594 570300 555245 97585 670877 203368 628554 2087464 123953 77841 535294 414156 121138 111816 47022 73523 597195 435636 15055 25913
shrinkage=0.05


Tree=19
num_leaves=31
num_cat=0
split_feature=1 1 1 1 1 4 4 3 1 1 2 3 3 3 3 3 3 1 1 3 3 4 2 2 1 3 3 1 1 1
split_gain=951749 74468.5 79297.1 72779.8 343148 83176.3 63260.2 55603.6 34677.1 20922.4 19958.3 19311.5 21161.3 28531.1 33043.7 14961.8 18601 10981.4 15689.6 10038.7 9234.09 14203 8427.46 8014.13 7379.18 6818.81 27023.3 6513.43 8565.8 8120.2
threshold=18.500000000000004 11.500000000000002 4.5000000000000009 28.500000000000004 19.500000000000004 345.00000000000006 117.00000000000001 6.5000000000000009 20.500000000000004 13.500000000000002 1.5000000000000002 27.500000000000004 40.500000000000007 37.500000000000007 29.500000000000004 12.500000000000002 25.500000000000004 7.0000000000000009 5.5000000000000009 1.5000000000000002 33.000000000000007 452.50000000000006 1.5000000000000002 1.0000000180025095e-35 23.500000000000004 5.5000000000000009 1.5000000000000002 9.5000000000000018 10.500000000000002 8.5000000000000018
decision_type=2 2 2 2 2 2 2 2 2 2 2 2 2 2 2 2 2 2 2 2 2 2 2 2 2 2 2 2 2 2
left_child=1 2 7 4 -2 -5 -4 25 22 -3 15 -9 13 14 -13 -8 17 18 -17 -11 21 23 -6 -7 -10 26 -1 29 -29 -19
right_child=3 9 6 5 8 20 10 11 24 19 -12 12 -14 -15 -16 16 -18 27 -20 -21 -22 -23 -24 -25 -26 -27 -28 28 -30 -31
leaf_value=0.036562690676267412 0.059128064682364478 -0.05238328459918784 0.055927784983556141 0.059934157962970358 0.013213192134546345 -0.099494206873159491 -0.031083070006068921 -0.042426321740159645 -0.055941728094944104 0.016388698208319032 -0.068454029588669224 0.046564559498309815 -0.059193192939982098 0.064379831211139771 -0.063750689449742312 0.058271237161787795 -0.039311279132326661 0.01387555551030567 -0.061987225675460993 -0.033623488162032859 -0.06896403746432532 -0.03347008198514375 -0.055389569653116727 0.042254400358625065 -0.031733510245506164 0.031683153511917486 -0.076574068023995967 0.048415966147020345 0.0053947938696522696 -0.0055845245668458745
leaf_count=19255 22708 956557 13312 36044 89964 3943 155711 1471464 251101 22070 57179 13179 85150 5841 88905 6948 104291 161957 65744 1678999 31847 78754 21852 9409 346094 45883 40399 10608 68591 436241
internal_value=0 -0.503401 -0.318487 0.782327 0.511679 1.06702 -0.018342 -0.618978 -0.544619 -0.776533 -0.144843 -0.752349 -0.231099 0.139047 -0.435769 -0.103656 -0.0282292 0.0451852 -0.745432 -0.646893 -0.305287 -0.0919421 0.137483 0.6396 -0.814913 0.329934 -0.084721 0.0907627 0.418164 0.0217178
internal_count=6400000 5508284 2850658 891716 731719 159997 1080582 1770076 709011 2657626 1067270 1664539 193075 107925 102084 1010091 854380 750089 72692 1701069 123953 92106 111816 13352 597195 105537 59654 677397 79199 598198
shrinkage=0.05



feature importances:
app=227
channel=187
os=121
device=46
ip=19

pandas_categorical:[]
